,0,1,2,3,4,5,6,7,8,9,10,11,12,13,14,15,16,17,18,19
0,0.042969912,0.17989786,0.020933991,-0.09477291,0.10846091,0.16468328,-0.117859796,-0.051286556,0.091315754,-0.012853173,-0.08040815,0.044471093,0.083188094,-0.04456938,-0.14965552,-0.036294684,0.030257532,-0.12439838,-0.060474575,0.18064204
1,-0.0073798792,0.011147797,-0.21049978,-0.20108098,0.11551751,-0.2992116,0.091707475,0.021196984,0.019580588,0.15557387,0.05529168,-0.27743343,0.1119083,0.09575777,-0.029024975,0.066896744,0.003737325,-0.03283409,0.05102635,0.020506473
2,-0.03773822,0.028251361,-0.11751596,-0.018819764,0.06977268,-0.16698062,-0.006736485,-0.038755268,-0.033978105,-0.040003654,0.12182361,-0.0646465,0.065194905,0.06649485,0.034488164,0.019187838,0.098646194,-0.026757715,0.10411046,-0.17962438
3,-0.047914963,-0.025014075,-0.056612156,-0.030376062,0.091415495,-0.25313884,0.0016921526,0.07833613,-0.0853937,0.065882176,0.03930495,0.107368164,-0.0042400304,0.0074881837,-0.07403439,-0.057533722,0.013773976,0.037019644,0.10927267,0.14704375
4,-0.01998547,-0.15934211,-0.11076643,0.0015165632,-0.17948933,-0.13137679,-0.06653458,0.047548305,-0.136904,-0.034068275,-0.066013694,-0.008536139,-0.12084988,0.30119985,-0.012041366,0.114065,0.019278925,0.10103116,0.2209604,-0.16856654
5,-0.014293638,-0.039246157,-0.031840548,0.012856916,-0.026655966,-0.20101005,-0.08243316,0.20886658,-0.15593077,-0.030484103,0.20010321,-0.08309245,-0.16756755,0.22574642,-0.07757578,-0.02227208,0.030725807,0.025829716,0.029954297,-0.1190213
6,-0.03280359,-0.08819464,0.030079661,0.013883258,-0.14201975,-0.18568203,0.010168911,-0.040089604,-0.13991879,0.2004112,-0.10553715,0.0018977816,-0.06600146,0.10434407,-0.054195866,-0.037036747,0.09221202,0.038527247,0.22712821,-0.15333465
7,0.2702953,-0.13648582,-0.08042106,0.42481405,-0.021078302,0.32354638,-0.06689948,0.4809234,-0.15311415,-0.033803515,0.21978821,0.47454286,-0.08997499,0.50970167,-0.03776157,0.2640187,-0.0418763,0.47268194,-0.06744562,-0.14354901
8,-0.10007035,-0.12471082,-0.09680286,-0.024407485,-0.031164074,0.36220115,-0.031424385,0.3654801,-0.15218927,0.40035552,-0.037765406,0.037494283,-0.08325002,0.04766182,-0.04895361,-0.04713243,-0.01580002,0.03435198,-0.043619666,-0.17684253
9,0.19638476,0.07820117,0.23005079,-0.023700422,-0.18976027,0.20503478,-0.060098972,0.00094666047,-0.17156515,-0.007650877,0.34607324,0.41165823,0.17067033,0.0015889278,-0.026095638,-0.090697475,0.021493195,0.09085799,-0.020538485,-0.04566508
10,-0.024894906,-0.13200021,0.08225203,0.047479097,0.0644952,-0.018952457,0.020319566,0.02307823,-0.16763413,0.06618196,0.055858944,0.07390836,-0.06481622,-0.07500639,-0.008416475,-0.011575431,-0.040761854,0.07138251,0.08365076,-0.1724237
11,-0.08139314,-0.08862055,0.13263093,-0.014597307,0.057262193,-0.1790104,-0.016749265,0.039045725,-0.15858811,-0.02549423,-0.07811484,-0.07983512,0.14130777,-0.009340995,-0.063627474,0.03924125,-0.013563611,-0.03061341,0.026376246,-0.11123115
12,-0.1391545,-0.019127075,-0.054471634,-0.05262948,-0.07958412,0.56945103,0.47189268,0.22768821,-0.002302124,0.6002129,-0.07217113,-0.06003761,-0.08203398,-0.008545286,-0.026867324,-0.19043714,0.0050595305,0.01763519,-0.047116395,0.41776448
13,-0.04803974,-0.14424023,-0.009203238,0.04121102,0.035602782,-0.20188676,0.48687333,0.48476282,-0.18042633,-0.12087925,-0.06497641,-0.021784604,-0.04168903,-0.09479056,-0.046069995,0.28093815,0.0022179577,0.0057432507,0.45758048,0.28584024
14,-0.048130065,-0.1601246,-0.041715566,0.04105524,0.035323154,-0.16554438,0.10631749,0.18926051,-0.1486108,0.073722355,-0.11647581,-0.079003185,0.040531155,-0.0130777685,0.023620663,-0.085867435,0.00095472584,0.06677096,-0.0008540027,0.038917005
15,-0.09999599,0.0035711247,-0.08209707,0.070511036,0.036342002,-0.17272934,0.17248805,0.14758323,-0.022950195,-0.055197913,0.024892485,-0.020706318,0.016279306,0.055624414,0.11531446,-0.08297309,-0.051786635,-0.038444746,0.13760683,0.10552515
16,-0.032151107,-0.16518903,-0.030249557,0.059101783,-0.13080752,0.085304245,-0.092682466,0.05732515,-0.12070087,-0.087310165,-0.041778255,-0.052679207,0.048776858,-0.06164606,0.14120737,0.14555955,0.015057509,0.033549555,0.07047934,0.080637574
17,-0.027846215,-0.22840309,-0.04455234,-0.052378755,-0.3168021,0.18623304,0.23494273,0.1225692,-0.039306566,0.07218646,-0.050309174,-0.08568169,-0.08684803,-0.028232234,-0.1210503,0.017675364,0.1429996,0.16004188,-0.2286388,0.34116757
18,-0.0934708,-0.19019091,-0.033719335,-0.005602189,-0.043254353,-0.19366539,-0.026729582,-0.0008363223,-0.12681682,-0.018766925,0.41186497,-0.10771372,0.15282677,-0.057650883,-0.016139317,0.12493608,0.0031771131,0.012012402,-0.07156155,-0.12197899
19,-0.15012339,-0.19058907,-0.14744717,-0.005831463,-0.14549598,0.110581756,0.2552847,0.24265288,-0.13108556,-0.118145905,-0.09847216,-0.12181512,-0.16761392,0.22850353,-0.034908827,-0.21352398,-0.028708236,-0.12752345,-0.03313914,0.16199833
20,-0.044231016,-0.06053759,-0.012922609,0.06611702,-0.06442946,0.39597705,0.009510347,0.09087051,0.006975796,0.3887111,-0.1151785,-0.016315809,-0.06846228,-0.01696374,-0.09695349,-0.09436592,0.08893962,0.0029854826,-0.0018405564,-0.1905136
21,0.08229711,-0.18173298,-0.015803521,0.36023724,-0.1857271,-0.16894996,-0.0044090995,0.5583124,0.014223436,-0.015454699,0.10208376,0.74485135,-0.09248961,-0.025984546,-0.034132093,0.03425847,-0.021404712,0.3231029,-0.060941998,0.11334977
22,-0.040532798,0.3059769,-0.07223096,-0.00080851966,0.30437505,-0.18413636,-0.08663443,0.62560457,-0.17926905,-0.054615345,-0.06571555,-0.0018313226,-0.021150831,0.22635642,-0.08384573,-0.07759249,0.553512,0.02825618,-0.0011698303,-0.10937472
23,-0.009701265,0.1223848,-0.08199499,0.019509258,-0.055296913,-0.19583881,-0.04236904,0.06019533,0.1389024,0.18773782,0.37087712,0.008928647,-0.058714826,-0.05940337,-0.012910925,0.1820505,-0.033514652,0.057690855,0.10491457,-0.032525323
24,-0.0076153837,0.030195786,-0.11939713,-0.018499833,0.0577922,-0.028714804,0.003075993,0.0116313705,-0.13551386,0.046184327,0.10264403,-0.09287926,0.073975824,-0.055570368,-0.10829485,-0.060215097,-0.044664927,0.024922736,-0.07854731,0.0652031
25,-0.08432413,-0.097155675,0.13473749,-0.0735225,-0.14199662,-0.08916726,-0.019104995,0.060731318,-0.18395637,-0.10520852,0.13374367,-0.116205886,0.1623351,-0.07992195,-0.02618635,-0.0110802,-0.12969832,0.07713045,-0.061063234,0.090800636
26,0.09422111,0.15518555,0.10063977,-0.027785316,0.05715304,-0.23469773,0.075718015,-0.020471646,0.014933227,-0.063124366,0.09980488,0.0623413,-0.10257016,0.020412583,-0.090079024,-0.030282179,-0.037142236,-0.033248097,-0.040057603,-0.08830202
27,0.035675827,-0.015773565,0.012454394,0.104892746,-0.020547703,0.030505277,0.107297845,0.047443073,0.020781584,-0.012714266,-0.011216016,-0.06609845,-0.039446935,-0.09773693,-0.074674554,0.08764327,0.010120846,0.11603094,-0.03925697,-0.16853738
28,-0.07984913,0.17055844,0.02858487,-0.0021826283,-0.09921937,-0.26584876,-0.089349814,0.055178992,0.21082185,0.29363307,0.38092753,-0.04403057,0.06773209,0.09545316,-0.083304666,0.16165759,-0.012147948,-0.0466959,0.05366041,-0.049434736
29,-0.024343833,0.04945299,-0.07565701,0.053673312,-0.11822621,-0.2679153,0.035642914,0.020625286,-0.09815715,-0.02725136,-0.05733736,-0.11625245,-0.16817315,0.0808183,-0.011161364,-0.048685085,0.07630676,0.09857708,0.07414311,0.027148891
30,-0.0055907997,-0.116351806,0.1050764,-0.02368765,-0.10610278,-0.16927429,0.0020566531,0.04990929,0.15932052,0.19139786,0.23283948,-0.043750677,-0.042820923,-0.07426209,-0.022629164,-0.043045208,-0.008974274,0.036111023,-0.04649293,-0.11339394
31,-0.058165994,-0.19091682,-0.08113848,0.009188274,-0.14707133,-0.06221295,0.028131993,0.052955296,0.07424943,0.047179647,0.17107259,-0.03433588,-0.06679404,-0.073416464,-0.01893293,0.0340397,-0.04830685,0.045644227,0.08973825,0.03349754
32,-0.056092452,-0.032238916,-0.033977926,0.058435496,-0.08274978,-0.19244711,-0.023424055,0.19226147,-0.12698166,-0.12003249,-0.0645601,-0.09442215,-0.033002425,0.2079463,-0.02985955,0.05050684,-0.002439941,0.24924506,-0.019281767,-0.0036669206
33,-0.06356077,-0.08012342,0.14777088,-0.0057400125,0.06678037,-0.20062613,0.0589094,-0.026395103,0.15893337,-0.049892575,-0.109174944,-0.10300665,0.12233981,-0.022421196,-0.06288915,-0.024315028,-0.010877717,-0.028145881,-0.08244621,-0.17906432
34,0.07842803,-0.06353104,-0.053395923,-0.062090658,-0.093981214,-0.06652728,-0.065213844,0.100461714,-0.08936961,0.13638055,-0.05197919,0.00045742182,0.052849997,0.005159942,0.16440578,0.053391516,0.012897128,0.06320685,0.1194817,-0.097107336
35,-0.011895863,0.013491415,-0.015349763,0.10173154,-0.040975977,0.17162535,0.01907705,0.20635144,-0.17007652,0.23601487,-0.022491043,-0.054623883,-0.0267079,-0.0025481842,-0.070648216,-0.11076019,-0.00010232732,0.0050507765,-0.06303484,-0.11247167
36,-0.041456476,-0.13987684,-0.03283434,0.041793574,-0.17086579,-0.26221532,-0.017719809,0.033358216,-0.12759739,0.134596,0.13910003,0.0674652,-0.035324775,0.3189477,-0.07789269,0.15052195,0.022581026,0.09143949,-0.0007966506,-0.121789984
37,0.1553788,-0.08994555,-0.06638384,0.052380975,-0.030698325,0.1447453,-0.013020024,0.08479142,0.09909384,-0.08745643,0.30705053,-0.01789657,-0.1683019,-0.021357685,-0.041499622,0.015776657,0.003115378,0.03669772,-0.021155909,-0.08499108
38,-0.035238463,0.08004352,-0.031525467,0.01706454,-0.11603357,-0.25443193,0.018745208,0.05747322,-0.0036019147,-0.09927763,0.20289056,-0.102997586,-0.040060956,0.37020788,-0.017415946,0.18615898,-0.00210093,0.069254175,0.29025707,-0.032061692
39,0.3739727,-0.17028457,-0.02857982,-0.00061394786,-0.16343895,-0.060618494,-0.011761714,-0.012785079,-0.07650294,-0.016427523,-0.09051204,0.008845231,-0.094119474,0.03163475,-0.06819522,0.2986842,0.31841695,0.03443464,0.1328339,-0.13861609
40,0.074490994,0.14079696,0.10634059,0.07958428,0.046134103,0.0377191,-0.06896758,0.015830776,-0.122339316,0.0873591,-0.07739429,0.12809145,-0.054527953,-0.04786116,-0.008716256,0.02535311,0.1278598,0.1407674,0.07485093,0.027433734
41,-0.06784842,0.22151901,0.14864472,-0.14103837,0.19878614,-0.17425038,-0.08921826,-0.03465847,-0.09790521,-0.12932177,0.071037434,-0.10350406,0.13935983,-0.17694017,-0.11987322,-0.080628484,-0.06046172,-0.032807972,-0.079634845,-0.015001941
42,0.24615932,-0.029719554,-0.064664885,0.390715,-0.105429925,0.116801284,-0.011233789,0.47842252,0.06588014,0.0011914836,-0.06352755,0.42046645,0.05921069,0.30136675,-0.017469179,-0.044497397,0.0023241267,0.0134027,0.037821338,-0.11064473
43,0.03806117,-0.062374584,-0.012000891,0.17904316,-0.16113889,-0.21954438,0.11124128,0.043314606,-0.15751326,-0.08719833,0.08244607,-0.045227982,-0.14760923,0.0076722982,0.17918926,0.06968594,0.07989516,0.059608202,0.102439046,-0.074009754
44,-0.023402506,-0.039628156,0.08964196,-0.050164826,-0.06349358,0.14745359,0.12260032,0.16837232,-0.19420868,-0.040358555,0.046597738,0.07920981,-0.012846894,0.030638274,-0.07974786,0.18936783,-0.024869641,0.0004472633,0.42939916,0.022705605
45,0.08509282,-0.028913775,-0.12863529,-0.04575139,0.06154814,-0.23824576,0.047250167,0.057914276,0.008453914,-0.037214905,-0.08407838,-0.09018984,0.141395,-0.055898093,0.1694056,-0.17856275,0.19580343,0.15697913,-0.06733887,-0.10500267
46,0.107355885,0.08828251,-0.11611589,0.086185835,-0.11171355,-0.20105743,-0.030886395,-0.04076492,0.0967269,-0.08472689,0.11034971,-0.05512287,-0.18897873,0.011497563,-0.032339264,0.03332827,-0.020671025,0.07633303,-0.029538639,-0.11675848
47,-0.07887148,0.11496171,-0.048377775,0.017135695,-0.007635638,-0.079955645,-0.010089108,0.014124967,0.09282692,0.21621867,0.15102613,-0.028095549,-0.06744691,0.3293453,0.050699618,-0.05318294,0.0351726,-0.0007089621,0.24403101,-0.12613353
48,-0.036649294,-0.047805894,-0.026698926,-0.024353039,-0.0544634,-0.22287412,-0.06945675,0.13546345,-0.08677662,0.0895521,-0.06653241,-0.037884474,-0.05537624,-0.0424437,-0.057354968,-0.02581841,-0.0034618285,-0.022266401,-0.057859313,0.09213611
49,-0.0073425258,-0.038558234,-0.10129796,0.18213668,0.08675947,-0.035861596,0.17053078,0.1560689,-0.032863893,0.03363605,-0.11132836,-0.027421245,-0.14656472,-0.007966018,0.21289869,0.18892501,0.039860584,0.054079052,0.09316193,-0.11005808
50,0.11729101,-0.1697073,0.112688884,0.07727935,-0.19287527,-0.19081214,-0.033453085,0.007737596,0.20303264,-0.060176518,0.19279927,0.48787668,0.1519443,-0.013979191,-0.022461446,-0.09594229,-0.0043763206,0.026600793,-0.02215177,-0.10502476
51,0.19162235,-0.074730545,-0.09167671,-0.020602586,-0.09559015,-0.20097856,-0.04338914,0.021635976,-0.026308645,-0.05648584,-0.017057132,0.01216213,-0.036382403,0.051248062,0.09174358,0.2998645,-0.025326584,0.027928341,-0.0783825,-0.122360446
52,-0.10247245,-0.11536602,-0.11418104,-0.01002621,-0.018271651,-0.18635447,-0.0055916575,-0.02934658,0.16176005,-0.038002804,0.3640882,-0.10661561,0.08872388,0.23319893,-0.05769741,0.1326945,0.016443674,0.021085717,-0.035137605,-0.044073556
53,0.14418186,0.19394183,0.27028716,0.02835749,-0.19041505,0.18643782,0.015334355,0.05411797,-0.12528436,-0.08534183,0.17745112,-0.044135083,0.25609708,-0.01975819,-0.04253586,-0.0061967056,-0.013735351,0.042935476,0.0032058991,-0.12670328
54,-0.047079377,-0.0061669247,-0.03779629,-0.0113911545,-0.017337713,-0.23638725,-0.08468794,0.0870903,0.046142567,-0.118104495,0.26382738,-0.088282436,-0.11970974,0.39900535,-0.06827535,-0.05053059,-0.0013419033,0.05791252,0.33879766,-0.05908685
55,-0.02414168,-0.10502959,-0.10046404,-0.006959547,-0.032172576,-0.2547583,-0.013557472,0.006399744,0.06927789,0.26944828,-0.1081711,-0.08015295,0.036428493,0.38686895,-0.010757515,-0.062135257,0.031326454,0.02761841,0.37138128,-0.044091858
56,-0.041646976,-0.06981764,-0.124515556,0.112286255,-0.15490218,-0.2268814,-0.04677013,0.05071134,-0.17096224,-0.06937336,-0.117435314,0.05020108,0.06608351,-0.002567252,0.1682094,-0.07846186,-0.07324533,0.11102086,-0.030747129,0.02837282
57,-0.074642554,0.05640095,0.006071249,-0.02027439,-0.099737205,-0.14106292,0.017135417,0.041246057,0.16790663,-0.04084079,0.33094335,0.012138734,0.09547065,0.11444142,-0.020849058,0.17095746,-0.023026155,0.041457254,0.029516684,-0.14979115
58,-0.020603748,-0.14235155,-0.06055265,0.12240555,-0.16911197,0.082797274,0.3318602,0.28364137,-0.124150254,0.07433747,-0.019635856,-0.05453485,-0.17010643,0.015982024,0.25097427,-0.111887515,-0.020875638,0.014705501,0.25100893,-0.14654358
59,-0.015048126,0.20612843,-0.01149287,-0.033359706,-0.11713406,-0.24066299,0.05395263,0.03735139,-0.14231834,-0.06257244,-0.08885061,-0.069844835,0.048777856,-0.0735429,-0.016939547,-0.050998364,0.08047402,0.13141072,0.09963033,-0.14406925
60,0.20649,0.032238606,0.2551041,-0.020146033,-0.18897814,0.16890626,-0.024679214,-0.0060745543,-0.15105389,-0.061200466,0.28602603,0.571829,0.19440706,-0.0023067524,-0.043022726,-0.00015387792,0.013591965,0.029351143,-0.019813614,-0.094770886
61,-0.0011353861,0.06696586,-0.11081287,-0.0008023087,-0.0550645,-0.2262976,-0.05896376,0.0035646802,-0.04903067,0.13853659,0.27964726,-0.011705844,-0.13517042,0.0569474,-0.011952486,-0.09688596,0.0072265603,0.019909251,-0.05719849,-0.04068956
62,-0.015420513,0.27795053,-0.10621511,-0.010813773,0.19966877,-0.25048834,-0.015300343,0.06383136,0.22551233,-0.037791878,0.23902768,-0.0980401,-0.13401666,0.0225374,-0.016069397,-0.060615968,0.011210268,0.0074209915,-0.025782505,-0.10728451
63,-0.017912073,-0.091995515,-0.016276274,-0.010203388,-0.17569268,-0.18556769,-0.04271775,0.006941833,-0.0028921019,0.45478645,-0.051637203,-0.016188823,-0.08413474,0.033745326,-0.012594895,0.10247715,0.012914621,0.11186538,0.30441728,-0.033609506
64,-0.038340904,0.011168428,0.0036746743,-0.026549628,-0.16062202,0.23825955,0.21113637,0.036019407,-0.0002463364,0.08177638,-0.013525116,-0.10007866,-0.030919407,0.023641162,-0.1160922,-0.0032660875,-0.022913678,0.010887694,0.142371,-0.12896518
65,-0.04411348,0.31746203,0.285083,-0.03122462,-0.15511838,-0.20207858,-0.006926519,-0.028000692,0.3244967,-0.013600318,-0.053439323,0.15220356,0.13640043,0.0029798916,-0.024328906,-0.07254581,0.018936327,-0.019078726,-0.0042859544,-0.066534065
66,-0.034474563,0.053961456,-0.047836486,0.018932406,-0.028264271,-0.14266895,-0.05905826,0.08346832,0.09656708,0.0009885301,-0.0560632,0.008832232,-0.15281557,0.3599196,-0.102076836,-0.029966855,0.00832449,0.023976238,0.2085158,-0.18033558
67,-0.03234561,-0.13710085,-0.015030777,-0.007725844,-0.19148344,-0.14070392,-0.03165397,0.15346716,-0.1531189,0.033782214,0.18565015,-0.07771591,-0.17287625,0.3130198,-0.049845073,0.20472237,0.0037681607,0.14036563,0.11920442,-0.063530356
68,0.061239105,-0.13099661,-0.022456765,-0.029098108,-0.16738905,-0.062243816,-0.030050602,-0.031990916,0.054778267,-0.018254826,-0.06407717,-0.030239446,-0.15237013,-0.010760915,-0.11843486,0.00810244,0.017853273,0.09779317,-0.054076415,0.17833544
69,0.14187992,-0.19133833,-0.09811643,0.099871956,-0.11948144,-0.048286706,-0.026235592,0.0056408546,-0.104671545,-0.09044635,0.12901077,-0.022589492,-0.019323424,-0.0077053965,-0.070478775,0.0008479327,-0.00071618386,0.1311633,-0.029713998,-0.027181169
70,0.09741327,-0.07905148,-0.021445332,-0.016061563,0.048504055,-0.20061447,-0.07725446,-0.031443432,0.028218595,0.032973766,-0.11267661,-0.05337372,-0.052427825,0.0738831,-0.007811792,-0.03818027,0.08886515,0.060204294,-0.05537933,-0.094123796
71,0.1530492,-0.14354934,-0.05861903,-0.037820436,-0.15590285,-0.21257327,-0.045400586,-0.031077107,-0.12028027,-0.0205972,-0.04894623,0.0663218,-0.14437926,0.06485344,-0.05745088,0.12284768,0.049741838,-0.04755649,0.055675082,-0.11133556
72,-0.06214213,-0.1832548,0.082677424,-0.031011704,0.13640828,-0.21839948,-0.11525132,-0.12744394,0.09339521,0.025718212,-0.05042568,-0.06401437,0.045676176,-0.06915788,-0.077788055,0.16409199,0.14766732,0.0067477887,0.11041665,0.12400375
73,-0.06468913,0.00091907836,0.055771556,0.01656532,-0.036063228,0.16019233,0.4182947,0.023990095,-0.022290524,-0.071382344,-0.043351047,-0.08561483,-0.053064786,-0.0042493856,0.36211395,0.31577477,0.020809028,-0.011560249,0.28927794,0.21697019
74,-0.03414373,0.32702148,0.15731627,0.027414443,-0.17247662,0.13015175,-0.058377508,0.03786903,0.31953058,-0.07736075,-0.089746855,0.28776917,-0.13607618,-0.052228633,0.063878514,-0.10603799,-0.04966192,0.019909417,0.002917987,-0.16059567
75,0.23727387,-0.15751675,0.22713497,-0.00050615956,-0.05089441,-0.26657143,-0.00023067248,0.035250437,-0.097392574,-0.11857188,0.45338333,0.552678,-0.17379646,-0.07909714,-0.039387133,-0.05049362,-0.012091088,0.0061365874,-0.069224216,-0.11722708
76,0.10181669,-0.18818413,-0.036706615,0.16164099,-0.16761144,0.12100085,-0.040376417,-0.016029092,-0.015458838,0.17817046,0.0079430835,-0.074451454,-0.06333506,0.1492911,-0.10595275,-0.02002445,0.2568672,-0.090135604,-0.009757079,0.10499126
77,0.08617357,-0.0059923246,-0.012038585,-0.01582527,-0.09114483,-0.26912358,-0.05468504,-0.015232279,-0.18076046,-0.111393854,-0.027997345,0.041100428,-0.08145787,-0.027652433,-0.07374913,0.2894595,0.016306503,-0.004502071,0.25509253,0.26626328
78,0.22227465,-0.15200266,-0.016300673,0.0055935015,-0.110604085,-0.16579139,-0.008954647,0.01973774,0.13572106,-0.0004900782,-0.03720758,0.12411791,-0.056478437,-0.06830311,-0.10139724,0.15079536,0.29837918,0.06160584,0.17543438,-0.18709913
79,0.043916784,-0.13472486,0.0019870163,0.06890576,-0.17741244,-0.2285494,-0.0017681874,0.12460629,-0.13153714,-0.11931759,0.10309837,0.063026525,-0.02882663,0.10122133,-0.0224004,0.07633996,0.069803745,0.06507196,0.04279349,0.09664844
80,0.09175304,0.07893911,-0.041463956,-0.011372449,0.05118125,-0.15033248,0.018063951,0.07681844,-0.06191193,0.01819565,-0.05468502,-0.040091846,-0.14212513,-0.01719444,-0.08291958,-0.106367715,0.05179416,-0.019540383,0.019144455,-0.16838737
81,0.16565856,-0.12054445,-0.10758227,-0.015614864,0.037462085,-0.19152488,-0.015628293,0.0062365504,-0.1908293,-0.07172339,-0.098679245,-0.011489516,-0.09024275,0.012181261,0.4227561,-0.07297658,0.009281039,-0.0025112247,-0.04438919,0.12080096
82,-0.008249234,-0.09813868,-0.09321637,-0.046369664,-0.089855574,-0.068534836,-0.019293549,0.0016772896,-0.14067602,0.1535298,-0.045374148,0.017047908,-0.13816237,-0.007340484,-0.03898021,-0.10235096,0.06474523,0.00927531,0.115089856,-0.171992
83,-0.06047451,-0.10506677,-0.04039834,-0.02841384,-0.13163608,-0.22715293,-0.056879357,-0.004860938,0.00858412,-0.0010757021,-0.013342529,-0.09806868,-0.032380678,0.009534925,0.050174322,-0.07438114,0.09108465,0.09050508,-0.0534363,0.034901742
84,-0.09684904,0.14895146,0.18863545,-0.0032712014,-0.07629513,-0.23561259,-0.038628835,-0.008425308,-0.15305975,-0.07013454,-0.095636606,0.17178527,0.1880725,-0.011337706,-0.073023915,0.02416255,-0.0015906517,0.011493424,-0.0075379186,-0.100564085
85,-0.00383029,-0.16462934,-0.025646826,-0.0040909504,-0.034340307,-0.24554725,0.0780372,-0.014657458,0.16445051,0.14549586,-0.033246942,-0.1138632,-0.13156484,-0.057092045,-0.07104959,0.14654383,-0.043162096,0.003590119,-0.009538236,0.25369015
86,0.25627092,-0.080860786,-0.028402995,-0.0021742554,0.19321722,-0.073298864,-0.09027545,0.03185627,-0.095054515,-0.028726334,-0.04547576,0.100238964,-0.060887687,0.040546793,-0.11129923,-0.11131834,0.24713379,0.02213709,0.22391482,-0.12549931
87,-0.03131767,-0.08575813,-0.059416182,0.42786652,-0.091677666,-0.22889021,0.6309238,0.05049681,-0.02075868,-0.049813718,-0.07108008,-0.040051285,-0.14156167,-0.028520528,1.2422044,-0.08574366,-0.03176614,0.01090539,-0.0373992,0.4237801
88,-0.046475135,-0.14345133,-0.09014572,0.13102306,0.32197613,-0.22922266,-0.1212061,-0.10030466,0.24898496,-0.16753551,-0.08581958,-0.09202602,0.09472844,0.16459826,-0.0740637,0.010153433,-0.032330766,0.1177494,0.21976314,-0.13750196
89,0.056780815,-0.10562001,-0.06666517,-0.04369039,-0.10067501,0.23548889,0.07859838,-0.047685057,0.17746247,0.21016544,-0.041780546,-0.108568095,-0.18156047,0.09184473,-0.03663787,-0.113378696,0.08310568,-0.043472845,0.047716934,-0.09510635
90,0.1474804,-0.046371136,-0.025111431,-0.042732503,-0.14638557,-0.06958802,-0.06451655,-0.04881437,0.15867065,-0.12426807,-0.11973983,-0.03259466,-0.02225114,-0.057300832,-0.0840889,0.1030524,0.10901609,-0.063980125,0.17285553,0.19297837
91,-0.033055276,-0.16681987,-0.011807816,0.0035181178,-0.09074363,-0.23337829,0.085037544,-0.007145034,0.17069624,-0.06652261,-0.019573493,0.07095101,-0.038920764,0.020464625,0.3042605,0.30758336,0.15465882,0.04047393,-0.07297921,-0.16182818
92,-0.07098211,0.0013546129,-0.008868682,0.011974267,0.10446602,-0.15439104,-0.027364818,0.03265369,0.15867783,-0.010375004,-0.05374142,-0.09561215,-0.15347514,0.067922845,0.1300758,0.1859226,0.11388874,0.049102522,0.17905284,0.11009045
93,-0.054700665,-0.023845319,-0.12427791,0.10007902,-0.1968653,-0.13138284,-0.051108398,0.089215346,-0.073757015,-0.046818603,0.010822643,-0.08933288,-0.08872817,-0.05940777,0.11348871,-0.10482473,0.08492453,-0.052856345,0.07024414,-0.18297644
94,-0.0069230273,0.024845736,-0.0031637244,0.09549729,-0.12118598,0.102304846,0.20311502,0.23866701,-0.14583558,-0.026347868,-0.09295308,-0.096894324,-0.14296761,-0.01598629,-0.11922581,0.07638159,0.017399417,0.038793575,-0.0222426,0.17922199
95,0.1784361,-0.18567297,-0.09748695,-0.014413265,-0.035526015,-0.2597987,-0.004698434,0.033743132,-0.08685589,-0.044275045,0.4103112,0.449144,0.17775178,-0.015194009,-0.020840513,-0.0049576503,-0.02450972,0.06947502,-0.025163637,-0.07027709
96,-0.09549889,-0.11507344,-0.007603855,0.39553016,-0.1012957,-0.23164071,-0.04715252,0.53507596,-0.12828805,-2.5770278e-06,0.12741098,0.028199827,-0.03773479,0.30530426,-0.01807695,-0.05155802,-0.0056093745,0.35737875,-0.029055068,-0.1809994
97,0.066204585,-0.018678399,-0.025899883,0.13299008,-0.16016549,-0.08022398,-0.028478088,0.10199111,-0.044867013,-0.08232914,0.027133675,0.08531704,0.040712677,0.09610163,0.060973793,-0.08774372,-0.02663002,0.06700652,-0.02982175,0.022119742
98,-0.013580306,-0.15617819,0.046898223,0.15713345,-0.14000359,0.043135576,0.24213754,0.027812459,-0.104292735,0.031093823,-0.025565645,-0.06749125,-0.024549276,0.004559474,-0.05546972,0.18639992,0.069694564,0.010325795,0.23804837,0.12098828
99,-0.012644675,-0.08969016,-0.09733475,0.07548617,-0.107895575,-0.11665709,-0.032990556,0.08254979,-0.030510867,-0.017821392,0.021171408,-0.020776985,0.055191543,-0.08003349,-0.11964402,-0.05582473,-0.026958996,0.09546994,-0.020216733,0.04991353
100,-0.08981888,-0.1077813,0.02826253,0.16441694,-0.10006913,-0.20813097,-0.024844833,0.02056327,-0.15473601,-0.0896143,0.14239423,-0.008659928,0.17121638,0.013086098,0.5962576,-0.09015857,0.3177788,0.28732485,-0.065078415,-0.087628536
101,-0.024845988,-0.1880645,0.05590942,0.0052074343,-0.05378857,0.11374486,-0.0844124,-0.012677138,0.2204574,-0.08938834,0.42788458,-0.09001255,-0.15878424,-0.015943954,-0.012558601,0.1264311,0.018597407,0.04780672,-0.0027971247,-0.05904259
102,-0.04830336,0.022344677,-0.039629012,0.06014725,0.08837978,0.123592995,0.22409554,0.13329686,0.00963476,-0.07491081,-0.12354114,-0.027894251,-0.012014041,-0.07630154,0.3143972,-0.09047386,-0.07493686,-0.0425008,0.23032211,0.17251053
103,-0.063734494,0.0065265726,-0.013340924,-0.011182931,-0.15508682,-0.034979243,0.015718726,0.03027805,0.16697498,0.006638589,-0.057119213,0.122152425,0.019256176,-0.046762858,-0.07288503,0.14977737,0.21036851,0.046170104,0.06435851,-0.16651663
104,0.110019274,0.11935833,0.10208585,-0.004874922,-0.1932121,-0.23808631,0.0032382556,0.009304948,0.10077677,-0.073368154,-0.11691398,0.1340131,0.10305116,-0.02281463,-0.03270863,0.053865314,-0.0692577,-0.045181368,-0.06815122,-0.01889975
105,-0.12405623,-0.15770887,-0.06505999,0.008982784,-0.05859538,0.31664044,0.3962117,0.27658048,-0.14585304,0.38171622,-0.029139915,-0.106642716,-0.1529054,0.11818281,-0.096948326,-0.04980251,0.04646978,0.0060959975,-0.05823352,-0.097615436
106,-0.07056546,-0.06561172,-0.03156234,0.14402594,0.11930628,-0.26355717,-0.01168298,0.120419934,-0.02671454,0.0261775,0.09421129,-0.030278925,-0.1586474,-0.062376145,-0.08582239,-0.09992351,-0.026554452,-0.05255419,0.040730804,-0.18634357
107,0.3396514,-0.16867332,-0.033177175,-0.027413754,-0.12867445,-0.062171206,-0.0050851195,0.07905854,0.4161801,-0.11988423,-0.024900604,0.13162808,-0.044378594,0.011505076,0.058044817,0.30484414,0.47629255,0.021795815,0.17765875,-0.10484709
108,0.39434576,-0.0050420016,-0.098983444,0.20734353,0.30836263,-0.17921701,-0.0031697978,0.020967685,0.28489053,0.007183702,-0.025705088,-0.02531245,-0.03289955,-0.06558094,-0.065469615,-0.11707756,0.1408787,0.15043166,-0.070830576,-0.10632964
109,-0.084704034,-0.14403857,-0.037789367,0.13728742,0.08665153,-0.038627136,0.16658668,-0.0075994437,0.07239334,0.012890724,0.08952622,-0.112383336,-0.10404012,0.096778505,0.10759648,0.13869122,0.03539378,-0.04915323,-0.013233812,-0.078624934
110,0.13921577,-0.12669346,-0.00764597,0.042232502,0.07921785,-0.025466193,-0.09458118,0.018666279,0.13513134,-0.0028764613,0.016965484,0.035952866,0.034382172,0.04153445,0.08863052,-0.030095275,-0.042573262,0.06712689,0.14113039,-0.13329288
111,-0.07296791,-0.14090653,-0.019802816,-0.018321145,-0.163393,-0.20814511,0.60122997,0.7318579,-0.0007509489,0.12689058,-0.014994024,-0.11065098,-0.051098704,0.036070075,0.58557224,-0.064581275,0.0036691483,0.031203534,0.39604312,-0.1685975
112,0.25139517,-0.15115328,-0.09975637,0.050595503,0.25522593,-0.18135598,-0.02607688,0.043410704,-0.0992124,-0.0044545424,0.023888988,-0.050194874,-0.06041314,0.01975235,-0.11017602,0.060819067,0.18567187,0.11516512,0.017976727,0.015376976
113,-0.058680583,-0.07691191,-0.025613448,0.09612926,-0.19388643,-0.08149569,0.23951913,0.22501288,0.009045894,-0.025176631,-0.024526438,0.014314998,-0.040901814,-0.046700995,0.17261834,-0.09034749,-0.011827294,0.016286846,0.14386019,0.16184263
114,0.13726304,-0.013658487,-0.10243925,0.0011698442,-0.152242,-0.12979227,0.12167743,0.04438062,0.20382756,-0.10102055,-0.010305399,0.025748998,-0.06500442,-0.06636318,0.24561761,0.28625354,-0.035533257,0.011316041,-0.07937221,-0.12699884
115,-0.03484559,-0.026824538,-0.042715777,0.052251354,-0.13936499,0.1332118,-0.03039866,0.02629386,0.0055758953,0.10691205,0.0052866577,-0.090268664,-0.14394982,0.11577452,0.27074027,-0.115826815,-0.023452729,-0.048920352,-0.061657123,0.09836273
116,0.44905707,-0.10868007,-0.031357024,-0.00097560394,0.3079428,-0.222979,-0.018941624,0.040119965,-0.08967288,-0.091409296,-0.009521698,0.05996927,-0.047709838,-0.01420542,-0.10248148,0.39840937,0.341702,0.017462252,-0.07242934,0.0045019756
117,0.21740535,-0.15770061,-0.10277973,-0.08654152,-0.094926424,-0.24697292,0.12675177,-0.016631078,0.056916356,-0.11812009,-0.07285816,-0.09680965,-0.048478544,-0.024250595,0.08544375,0.14911257,0.22086783,-0.06609882,0.086241685,-0.16697931
118,0.0773371,-0.04830895,-0.040102143,0.15094112,-0.10404338,-0.18498048,0.07952981,0.10668301,0.049785197,0.040228058,-0.010022356,-0.042590924,0.048133943,0.007192165,0.09788002,-0.1086509,0.109825015,0.07044163,0.018185098,-0.050618533
119,-0.03541155,-0.14368057,-0.05026948,-0.005468301,-0.028279327,-0.05818881,-0.006720751,0.05356222,-0.19063142,0.21822703,0.14874227,0.017144408,-0.0034782898,0.2548498,-0.033651695,0.17090698,0.076718874,0.13223018,0.18954629,-0.14361368
120,-0.07321546,-0.15061064,-0.083267145,-0.017881123,0.07674355,-0.1871047,0.054643825,-0.009379536,-0.05204601,-0.05983587,0.045933418,-0.08439621,-0.060321156,0.05984307,-0.11277495,0.14523229,0.037294377,0.032180835,0.1897594,0.13914761
121,0.20021111,0.008519377,-0.04239095,0.050632514,0.0561597,-0.054694377,-0.001448008,-0.0031786612,0.1393426,0.021407891,-0.004384264,0.006031877,-0.12878229,0.024179054,0.14528547,-0.031089183,0.16919422,0.08802997,0.1440153,-0.0617541
122,-0.034191623,-0.1672874,-0.010637663,0.5867963,-0.022702396,-0.19913112,-0.018007586,0.62278986,-0.008898276,-0.12192691,-0.10831573,-0.03450033,-0.18050654,0.6509955,-0.01751564,0.16828634,0.00012849743,0.55417424,-0.07933018,0.12298022
123,-0.08181144,0.11567144,-0.0129073635,-0.030959062,-0.10030426,0.01928991,-0.04619727,0.026616475,0.20252512,0.22840424,0.20976461,-0.0147890495,0.046336364,0.05349045,-0.062157176,0.13963959,-0.034954976,0.07034261,0.022640204,-0.10051012
124,-0.082418784,0.16766149,0.20187752,0.0058778794,0.1186797,-0.17954858,-0.0027902485,0.036785685,0.21718678,-0.11223567,-0.10603595,-0.09474292,0.112197936,-0.04689447,-0.05181161,-0.07725772,-0.019006686,0.04184045,-0.010299987,-0.1483699
125,-0.024397703,-0.122088656,-0.028301148,0.027654896,-0.04922816,-0.17579317,0.0022979411,0.043759186,-0.10382215,-0.08820458,0.47662547,0.06696128,-0.07932429,-0.051401686,-0.012978452,-0.07322542,-0.031047476,0.013516314,0.016386092,-0.03159827
126,0.2162413,-0.095313706,-0.005466115,-0.017150596,0.0864845,-0.12580158,-0.0553946,-0.0055981176,-0.06958971,-0.019458367,0.02412379,-0.11163584,-0.022715908,0.027101124,0.15040097,0.23882768,0.2174196,0.0065197404,0.10605965,-0.11814625
127,-0.03307492,-0.15973304,-0.009288678,-0.014205228,0.20363826,-0.05907361,-0.008914269,-0.017133797,-0.06591861,-0.101939686,-0.09978132,-0.0076732473,-0.021463286,0.017488984,-0.095731735,0.3496591,0.25902182,0.010277327,-0.049511086,-0.10961604
128,0.15823759,-0.10933518,-0.019065177,0.19937783,-0.1716914,0.20081152,-0.06722342,0.18737411,-0.17598158,-0.048290413,0.112620346,-0.08565205,-0.024044566,0.004188711,-0.027761217,0.034595262,0.0055650566,0.29200262,0.009478739,-0.13923314
129,0.02327595,-0.14727816,-0.0582273,-0.025751164,-0.11352261,0.5049859,-0.06607972,0.115483746,0.41809055,-0.00639209,0.58805,0.711234,0.46990108,-0.06671757,-0.09751426,-0.007117916,-0.016962154,-0.022438236,-0.15745743,-0.14979474
130,0.0663799,-0.10622215,-0.036342144,0.35813624,-0.18559536,-0.22698976,0.054153636,0.47027475,-0.11875767,-0.05375801,-0.045122545,0.40824118,-0.14162232,-0.037131898,-0.07584005,-0.09553744,-0.04429878,0.39464998,-0.0013624192,-0.15520826
131,-0.037225164,0.09713914,-0.09788706,-0.054755013,-0.08549096,-0.19429415,0.03307666,-0.048047744,-0.1084326,-0.024645617,0.081825525,-0.01691034,0.09756784,-0.05302587,-0.030864235,-0.018918738,-0.07227593,0.011128608,-0.056585357,-0.14947131
132,-0.059964925,-0.16467679,-0.1020071,-0.006887416,-0.15021859,-0.096322134,-0.01683786,0.16666317,0.026519226,-0.031028852,0.1820816,-0.013882932,-0.1878056,0.25461268,-0.019670034,0.17216013,0.009910504,0.0557196,-0.06853619,-0.042606417
133,0.30059233,-0.060288575,0.23024394,0.009550259,-0.04599856,-0.2237585,-0.08790666,-0.02246947,-0.17692044,-0.0868221,0.40571564,-0.03384471,-0.16681673,0.004471763,-0.021474091,-0.032136384,0.0064261467,0.020381518,-0.054201033,-0.15981801
134,-0.007564367,-0.14971957,-0.030937653,0.0375153,-0.15837887,-0.26680934,-0.094506904,0.14558646,0.058779765,-0.1094722,-0.09906039,-0.039007366,0.07258133,0.48223895,-0.09322307,-0.017726997,-0.04436217,0.033331685,0.2718847,-0.08934095
135,-0.084474996,-0.0893671,-0.017238703,0.028462352,-0.095094964,-0.19819583,-0.017300203,0.06980334,-0.11302075,-0.117053024,0.12428049,0.13187948,-0.097645506,0.09075124,-0.048891306,-0.009827856,0.012664812,0.090792544,-0.03377852,0.058729175
136,0.05060433,-0.13891576,0.037839495,0.087516785,-0.12651996,-0.25870252,-0.08790598,0.11010769,-0.099899836,-0.030611008,-0.033010233,-0.056950297,-0.041726608,0.04626376,-0.107936434,0.15128736,-0.041052748,0.07247079,-0.07984384,-0.18514296
137,-0.03674147,-0.040199086,-0.09357757,0.0287378,-0.053777765,0.26456824,0.37995774,0.30192012,-0.17805138,-0.058312844,-0.036197998,0.0035186775,-0.028785624,0.11651012,-0.0504769,-0.040262055,-0.011801148,0.012114771,-0.00047310424,-0.12869263
138,0.1880322,-0.16787396,-0.005138656,-0.001954895,0.11367953,-0.2501629,-0.010160932,-0.0034327563,-0.15608011,-0.123011306,-0.059720404,-0.1058302,-0.09926308,-0.023210835,0.29109642,0.32598656,0.035648596,0.009653031,0.15766738,-0.15881361
139,0.12092627,-0.19201486,-0.08395826,0.039936557,-0.18576743,0.024129352,-0.03010262,-0.05153816,-0.105825685,-0.0038819707,-0.005086476,-0.07756848,-0.08409333,-0.08233175,0.11322336,0.13982667,0.14202867,-0.04249037,0.10564854,-0.15771304
140,0.020563437,0.07705191,0.1264498,-0.03701112,0.12193844,-0.19449323,-0.023104936,0.0029348878,-0.14565332,-0.03662801,-0.007754957,-0.013925798,-0.02196071,-0.07080927,0.05715828,-0.0969926,0.0322871,-0.040382054,-0.040930025,-0.12897265
141,0.117043935,0.08048973,-0.11280032,-0.061694782,-0.020976327,-0.06503127,0.07122504,-0.083293736,-0.16057004,0.038215004,0.02693882,-0.10371517,-0.11382113,0.0030029493,0.124744095,-0.061538555,-0.04500111,-0.08063318,-0.046859834,-0.022105953
142,0.012928223,-0.060606696,0.04742961,0.00033663696,-0.18036652,0.19173989,-0.06187626,-0.01378052,-0.09987694,-0.056683093,-0.10978708,-0.049032636,-0.1650392,-0.0052285027,-0.08654148,0.1714449,0.10399896,0.00037775544,-0.01153227,-0.11884029
143,-0.029237857,-0.090961106,-0.09219883,0.091657944,-0.076675676,-0.25956172,-0.007169801,0.09252336,0.078355365,0.12671658,0.22134553,-0.055562537,-0.025175905,0.15117116,-0.016415028,0.11725974,0.039727706,0.08247364,0.15304929,-0.11316893
144,0.109849475,-0.12731701,-0.08375835,-0.0055492595,-0.17350514,-0.2251319,-0.032791506,-0.01916272,-0.13041829,-0.0091321245,0.26180613,0.49342573,-0.18310183,0.00933178,-0.02455694,-0.11939201,0.0041151335,0.06894631,-0.04361075,0.109088205
145,0.12580334,-0.17428051,0.10919787,0.014465798,-0.072811596,-0.14187323,-0.016775036,-0.002430817,-0.107176445,-0.059439287,0.2403418,0.37703428,0.1788818,0.011567777,-0.031884573,-0.082074374,-0.0013901116,0.046818413,-0.070457734,-0.1654645
146,0.18260045,-0.16981778,0.19211277,0.027592558,-0.16410568,0.17093317,-0.009391128,0.0056008403,-0.15782087,-0.005949881,0.27922365,0.3203264,0.15478083,-0.036119625,-0.04484847,-0.11639095,0.015256084,0.130894,-0.009713759,0.06212876
147,0.08473589,-0.13818385,-0.06405131,0.020713648,0.072957136,-0.20578459,-0.06704759,0.023260884,-0.100880906,-0.099925466,0.025760928,-0.10020087,-0.065224975,-0.052768007,-0.08300107,-0.09310453,0.19546837,-0.05835234,-0.07132626,-0.10860129
148,0.067934796,-0.08818715,-0.09924708,-0.06297875,-0.18385236,-0.083339855,0.21648395,-0.03725448,-0.15503046,0.050696112,-0.0895762,-0.036340553,0.1943139,-0.07464474,-0.12538981,0.15960008,-0.042241905,-0.05730006,-0.006297688,-0.18131836
149,-0.06425571,-0.018242907,-0.034583658,0.030694732,-0.016637746,0.30199668,0.3793821,0.19832903,-0.014395101,0.40548694,-0.10208087,-0.0075820233,-0.07016376,0.026807118,-0.062811986,-0.00033388188,0.029953644,0.021863671,-0.010651153,0.24113412
150,0.15696782,-0.08970347,-0.0035773357,0.026239935,0.08175654,-0.05974003,-0.018876353,-0.00052782363,-0.116598755,-0.010075799,0.018768715,-0.0008069754,-0.150812,0.0028575803,0.18887845,0.29182285,-0.04036668,0.041258823,0.19536476,0.060242448
151,-0.08760714,-0.032145165,0.009531675,0.018678086,-0.13960429,0.17931466,-0.05504999,0.08972766,-0.16166799,-0.07545895,-0.07916421,-0.0068434803,-0.021652589,0.18076417,-0.059349433,-0.06370653,0.065699995,0.016161656,0.014073919,0.2776104
152,0.11457236,-0.1378112,0.13069257,0.0028622015,-0.18031621,0.22519565,-0.023005506,-0.008782985,0.26468846,-0.013533559,-0.11393644,-0.03396409,0.18101759,-0.056996815,-0.020391664,0.06601615,-0.016277358,0.07987546,-0.011849197,-0.09374207
153,-0.051128518,0.025541872,-0.002224357,-0.010559682,-0.05992675,-0.1570024,0.013769219,0.026910521,0.09443304,-0.10946649,0.2889749,-0.045305546,-0.15043278,0.19629143,-0.08856285,-0.029828146,-0.010865212,0.12066994,0.009754818,-0.16205207
154,0.09587059,0.14669912,-0.011832121,-0.022382468,-0.0622661,-0.22189352,-0.09921212,0.0037223704,-0.10712561,-0.048691954,0.15403728,0.062066995,0.084174864,-0.0012483883,-0.006874222,-0.06258069,0.059487652,0.06260364,0.011634793,0.081483535
155,-0.012329597,-0.062381152,-0.019385096,-0.026910814,-0.04855892,-0.11832462,-0.017385216,0.038085848,-0.08654895,0.10290255,0.2713599,-0.10009578,-0.039033,-0.020350616,-0.10678778,-0.082007095,0.01952372,0.034125958,-0.0039699953,-0.14033334
156,-0.02132702,0.06305811,-0.047137935,0.0055431807,-0.012759543,-0.22443748,-0.038205463,0.010235026,0.09192328,0.24313097,0.24594148,-0.040467326,-0.0893113,0.1957759,-0.0157774,0.14356446,0.0008181892,0.12021511,0.17653713,-0.09437359
157,-0.05596117,-0.09018779,-0.09697662,0.15968052,-0.025952978,-0.18256824,0.30662715,0.29400265,-0.016559685,-0.111203335,-0.021720806,-0.035946153,-0.044359643,0.01576014,-0.11007846,-0.09563728,-0.034974184,0.013074721,0.35842112,-0.07130941
158,-0.07862273,-0.027379552,-0.12789997,-0.010463357,-0.09581929,-0.23411296,0.08980226,0.012043955,0.0473453,-0.011904598,-0.09609417,0.06903829,-0.1318347,-0.022812312,-0.07625914,0.23292582,0.064166635,0.011410333,0.20850165,0.23352128
159,-0.15719873,-0.20470834,-0.08855447,0.111656405,-0.21741803,-0.015908012,0.06452268,0.016141849,0.03965767,0.1052877,-0.33350214,0.075464725,0.017373396,0.09971325,-0.086047724,0.0005926231,0.030290516,-0.16947147,-0.023343565,0.15407935
160,-0.054463055,-0.14849769,-0.010216484,0.309728,-0.18231374,0.08023147,0.011994545,0.23215249,-0.18687959,-0.10025341,-0.11131318,0.3944707,-0.0049310275,0.09156765,-0.015130414,-0.038988415,-0.0075820885,0.3018654,-0.07201295,0.03292186
161,0.071382,0.040076282,-0.020123411,0.025701305,-0.08393627,0.0076664584,0.0778426,0.03272731,-0.02207028,-0.03574401,0.044835318,-0.056032028,-0.0070591727,0.0903005,0.10104205,0.121200025,-0.012065469,0.015789835,-0.014781165,0.036662616
162,0.10092114,0.26294327,0.21524411,-0.00694189,-0.16502313,-0.24116884,-0.021434527,0.025810963,-0.17313567,-0.035522122,-0.08737352,-0.042729467,-0.10155634,0.023770222,0.025166841,0.0033607967,0.024053134,0.022779264,-0.06798586,-0.031321455
163,-0.04411415,-0.10044409,-0.09142683,-0.017031021,-0.071581066,-0.24895191,-0.0704794,0.005812487,0.21043016,0.20577887,0.2797881,-0.057513792,0.13218604,0.026068933,-0.0233358,-0.11812948,0.0127213085,-0.00028855656,-0.07995545,-0.050251313
164,-0.08375552,-0.0845808,0.114448875,0.0035509078,-0.1334679,0.14129849,-0.042268913,0.33447352,-0.08939435,-0.09285416,-0.08949534,-0.009807021,-0.18000117,-0.010926699,-0.09402426,0.2251527,0.02256028,0.01522688,0.34721115,0.24226287
165,0.005889183,-0.093828574,-0.04637049,0.010975644,-0.067654066,-0.18358801,-0.07465522,0.08887406,0.012448729,-0.11892602,-0.098508894,-0.040454853,0.06796795,-0.04274118,0.06991184,-0.019308103,-0.0109624155,-0.0010565835,0.048469685,-0.11429272
166,-0.06124101,0.035478014,0.09654676,0.0049974057,-0.14457767,0.11003717,0.0056595732,0.047872227,0.17892815,0.032933533,0.1434512,0.280839,0.15588236,0.04159548,-0.05511011,-0.06665604,0.001207822,0.06101708,-0.008710118,-0.09859994
167,0.19725204,0.052887056,-0.049938656,0.022030458,-0.156308,-0.20463076,-0.033399966,0.055764817,0.10344711,-0.0029650477,-0.09018449,0.14793757,0.17335424,0.03810004,-0.009900228,-0.09874205,-0.101567425,0.05704703,-0.053279087,0.12276107
168,0.19699182,-0.069902636,-0.08392815,-0.073864184,-0.13740844,-0.21195015,-0.08200675,-0.0060230107,0.21309637,-0.05150601,-0.08327213,-0.10402246,-0.121730104,-0.02223421,0.21607503,0.15956348,0.2582897,-0.04362486,0.101582624,0.03409758
169,-0.032924652,0.0127702905,-0.104651146,-0.0025172622,-0.08478718,-0.19947132,-0.007915225,0.03313403,0.027876746,0.029236767,0.08617275,-0.021219732,-0.0971792,0.11001587,-0.007918751,-0.11396413,0.051755168,0.016104436,0.003882978,0.051558293
170,-0.015125017,-0.0016456798,-0.08737798,0.027573068,0.0034696113,-0.24013542,0.030689651,0.19479065,-0.09069831,-0.036309168,-0.057424605,-0.040782545,-0.04529989,0.13907336,0.057637718,0.050053876,-0.04951033,0.11131875,-0.012092447,-0.16886748
171,0.45872813,-0.16394775,-0.030137306,0.15580037,0.13866855,-0.059998624,-0.0138601465,0.0037055642,-0.14939752,-0.01057339,0.045543563,0.079826534,-0.02807898,0.10087248,0.19759354,-0.11480659,0.2060283,0.009033626,-0.07279562,-0.07730055
172,-0.03445498,-0.14103812,-0.06096403,-0.012119673,-0.09747788,0.041612208,-0.0053654304,-0.014944531,0.19298793,0.1211713,0.29335755,0.09655033,0.049701396,-0.02001579,-0.029144168,-0.052999813,0.0005578665,0.02644645,0.022896245,-0.17202406
173,-0.014499402,0.21605171,-0.02302839,-0.014959743,0.09417428,-0.19735937,0.012494897,0.23170516,-0.13829201,-0.028661406,-0.0717686,-0.09349215,-0.015059767,-0.07238436,-0.028839892,0.009165099,0.2789907,0.020821635,0.013459794,-0.089579575
174,-0.08442517,0.07315817,0.10728331,0.077674754,0.12196509,-0.2507451,-0.017871395,-0.048454057,0.03281343,0.085389555,-0.032356195,-0.039289948,-0.15962392,0.019899527,-0.014391838,-0.115073904,0.010024224,-0.052690495,0.01846856,0.045663103
175,-0.026264792,-0.091873005,-0.009810434,-0.020799307,-0.08307921,-0.2042252,-0.06962378,0.0012661414,-0.15155405,0.5681508,-0.0510894,-0.07895084,0.029655255,-0.07385792,-0.11090828,0.23785043,0.26515138,0.113027334,0.45777875,-0.110567525
176,-0.0247999,0.18321855,0.234939,-0.0084323175,0.16704845,-0.22381799,0.0066232085,0.03628009,-0.13173383,-0.10495056,-0.07583305,-0.019462625,0.12033636,-0.033401627,-0.018995132,-0.07406016,0.005949121,0.032515258,-0.01229441,-0.014479531
177,0.007928294,-0.11745261,0.03270959,-0.057263754,-0.013792809,-0.22950298,0.0053691966,-0.010851695,-0.03884907,-0.03608493,-0.16592649,0.030812489,0.06047562,0.07517112,0.14741218,0.09366716,-0.058242667,-0.11785136,-0.0010751653,-0.08899924
178,-0.08670026,0.0019889772,-0.093273915,0.105122514,-0.039001886,-0.24095528,0.02076988,0.042108122,-0.18316156,-0.009016899,0.28474027,0.27484876,0.13070826,-0.038329463,-0.06575538,-0.09805308,-0.002331036,0.043331984,0.028426547,0.064874455
179,0.1545955,-0.09493362,0.11938199,0.01775788,-0.08632169,-0.07336832,-0.04002255,0.11704277,0.03516664,-0.121611066,0.06499503,-0.05755898,-0.06434969,0.014622604,-0.069656216,-0.08605179,-0.022419985,0.0006737673,-0.04712461,-0.08220306
180,-0.10224763,-0.058452412,-0.03742422,-0.004273356,-0.037226465,-0.11063914,-0.018991763,0.0049361563,-0.13817255,-0.09819881,-0.038759016,0.047001418,-0.10788687,-0.068904705,0.107151344,0.12073065,0.07723325,-0.037858497,0.040480074,-0.102793045
181,0.15283012,-0.16768628,0.022867937,0.04754631,0.18269044,-0.2160463,-0.13221148,-0.010720423,-0.088818006,-0.2337361,-0.10394854,-0.0769964,-0.054396003,-0.13934086,0.12180629,0.09142221,0.24160424,-0.17392363,0.27070355,0.2276002
182,0.18437876,-0.1008797,-0.018100422,0.4664077,-0.023359835,0.1709859,0.029619412,0.45121816,-0.19544068,0.00052780344,-0.108284816,0.3190102,-0.029258652,0.26379582,-0.09400678,0.059258893,-0.006064652,0.22863935,0.020119146,-0.015467092
183,0.108508505,-0.002258588,-0.08488642,-0.16881698,0.058990132,0.3747093,-0.10578561,0.0062563554,-0.19358441,-0.12660433,0.3141986,0.26599607,0.28284097,-0.17494556,-0.4128285,-0.17866756,-0.2514625,-0.098381676,-0.123273596,0.0995562
184,-0.06121383,-0.082686104,-0.11978591,0.19509275,-0.020408066,0.031496428,-0.038941357,0.09021075,-0.17976838,-0.0036446797,-0.010838075,-0.07914627,0.0734199,0.08870235,-0.07343769,0.05335995,-0.043217715,0.1652068,0.072434545,-0.033723246
185,-0.02578686,-0.09018191,-0.10908038,-0.0017028201,-0.05134603,-0.17637073,-0.036143802,0.040306576,-0.1714945,-0.045618527,0.32495788,-0.0012033395,-0.08649241,0.30902606,-0.08887253,0.14075795,0.025392223,0.0151636405,0.19507673,-0.045825493
186,0.024221843,0.21163306,0.13898365,-0.0056248093,-0.057090603,-0.0018152831,-0.010684735,0.0020852298,0.035209503,-0.043719694,-0.047504153,0.023992317,0.10000374,0.014003591,-0.051698636,-0.106086604,0.09216338,0.019408535,-0.04217287,-0.08217303
187,0.12774093,-0.17072022,-0.07384414,0.11009524,-0.034680713,0.097430296,-0.042293113,0.029639833,-0.09427885,-0.0025964475,0.26422843,0.20360348,-0.07021602,-0.041664008,-0.013869356,0.045098264,0.011773348,0.026537305,-0.025586093,-0.1421466
188,-0.032216944,-0.10958604,-0.076646335,-0.011514951,-0.036220316,0.0089211315,-0.020783825,-0.0038024236,0.22345999,0.1399952,0.4064769,-0.012843154,0.15529488,0.15439044,-0.03390014,-0.099085115,-0.00063732313,0.020280309,0.008719081,-0.18678236
189,0.30209136,0.10949991,0.40469077,-0.01088075,-0.0897857,-0.17893626,-0.043434955,0.020453412,-0.13405831,-0.108779326,0.6333485,0.7866531,-0.16540127,-0.07436662,-0.044338074,0.010475752,-0.032728747,0.020631015,-0.046772283,-0.1857553
190,0.18827611,0.23703788,-0.092380516,-0.0046638213,0.016457237,0.14670123,-0.077127494,0.0023882976,-0.1857777,-0.1038643,0.40061197,-0.08903386,-0.108024105,-0.052227575,-0.103957236,-0.12053097,0.0067514535,0.011108846,-0.028259179,0.01022682
191,0.16320647,-0.13976654,-0.09071502,0.2839592,-0.08097555,0.13031872,-0.007815208,0.31371123,-0.12313394,-0.10122338,0.1406684,0.39798945,-0.052468836,-0.07481274,-0.011732719,0.06073248,0.0039185435,0.28413478,0.034411907,-0.104021676
192,0.19841304,-0.01880313,-0.01947238,-0.008350166,-0.1548494,-0.19818245,-0.061011355,-0.0036810855,-0.09350703,-0.028540129,-0.037705675,-0.082246155,-0.11974965,0.0018779032,0.34764317,-0.04171013,-0.038461242,-0.009036646,0.21220781,0.12792245
193,-0.02729949,-0.096569374,-0.098491475,0.32466406,-0.13434216,-0.13589227,0.067126244,0.60043263,-0.09733501,-0.0398364,0.23463818,-0.10401966,-0.06910698,-0.0271277,-0.053493332,-0.03240563,-0.03350347,0.6207856,-0.02161256,-0.17596692
194,-0.07083747,-0.18476787,0.06319429,0.3739496,-0.11673958,-0.2541516,-0.001983328,0.6355514,-0.0012657761,-0.100197375,0.24877365,-0.05872633,-0.041666895,-0.06411416,-0.074112006,-0.046603788,-0.030232696,0.5825141,-0.07726634,-0.16320372
195,-0.019961363,-0.104257666,-0.08816843,0.15963632,-0.08809027,0.14649941,-0.042547103,0.08035107,-0.044168554,0.284191,-0.09271167,-0.10085135,-0.08762689,0.0041735214,-0.06904681,0.015311862,0.0032838858,0.014066447,-0.030231744,-0.1155304
196,0.17493804,-0.13659307,-0.0077148527,0.29057586,-0.16526827,0.15105216,-0.011380689,0.30373028,-0.09876241,-0.076110706,-0.061363846,-0.04836363,-0.027158638,0.27895337,-0.013084923,0.13854222,0.0070989183,0.3201548,-0.012872869,-0.03365817
197,0.053685036,-0.06576474,-0.029853305,0.10354844,-0.034750655,-0.22062847,-0.060707573,0.112448715,0.021460842,-0.040349957,0.12947977,0.120590374,-0.12560591,0.17784682,-0.059329,-0.061625462,-0.02779166,0.16678125,0.039979924,0.15009367
198,-0.067104906,-0.19042897,-0.0052556572,-0.027921494,0.4029339,-0.056735747,0.27847072,0.5019031,0.108442485,-0.12776597,-0.05452138,-0.0020812778,-0.13681462,0.13836439,-0.021290043,-0.08044539,0.5223691,-0.014488701,-0.0018457348,-0.15936987
199,-0.0849278,0.041541494,-0.08378244,-0.0032848716,0.12801865,0.12579356,-0.020469734,0.020817071,-0.0017222023,0.256183,-0.091614686,0.25436398,0.003921018,-0.0016277435,0.03754164,0.088534646,-0.037761614,-0.022980975,0.09315459,-0.09829095
200,0.3729985,-0.025615212,-0.024137627,-0.01385002,-0.15203296,-0.20771451,-0.010763522,-0.006359389,-0.05527582,-0.07356753,0.079642065,0.014241278,-0.18468444,-0.006248869,0.4659859,-0.0589661,0.27534816,0.16978069,-0.06116529,-0.13273393
201,0.32034615,-0.092756934,-0.09901532,-0.023762457,-0.120733015,-0.25498527,-0.01997325,0.0056751384,0.23098189,0.1149744,-0.111222886,0.030177861,-0.13628894,0.14739098,-0.045978405,-0.10085341,0.1995274,0.026966326,-0.0046908255,-0.14747627
202,0.16833338,-0.056694854,-0.048563708,0.049772296,-0.15617283,-0.19500174,-0.07466392,0.049371008,0.1528283,-0.01168731,-0.03240475,0.14235523,-0.16673258,0.055992924,0.18657485,-0.022718452,0.19331773,0.07819732,0.1742229,-0.11793072
203,-0.095243976,-0.17357859,0.12869556,-0.049259838,-0.13555954,0.04215056,0.032216314,-0.0018422867,-0.19915245,0.12951899,-0.047481924,0.13675284,-0.13506393,0.18588291,-0.10748555,-0.046890628,0.15458922,-0.0065145823,0.040475108,0.034052998
204,-0.0988923,-0.04542661,-0.020101666,-0.014234823,-0.034466226,0.38984644,0.4247266,0.27346134,-0.11125175,-0.0836536,-0.05356885,-0.0661515,-0.061741628,0.1366753,-0.018825402,-0.078148454,-0.0029358277,0.009477674,-0.048392154,0.3289923
205,0.14643201,0.1103019,0.07868456,-0.042273246,-0.13338254,0.042980503,-0.10442875,-0.10727385,-0.09369156,-0.15714902,0.04526571,0.11944274,-0.18059704,0.011192533,-0.03807028,-0.052544873,-0.026688041,0.1289794,-0.040590525,-0.1790166
206,-0.0887634,-0.15730245,-0.09487793,0.11145652,-0.10543523,-0.1739247,0.0012516414,-0.00074174546,-0.16278373,-0.026310755,-0.020289406,0.06840897,-0.04212053,0.012684058,0.011821518,-0.11180246,-0.044358354,0.09760162,0.042507127,-0.13608713
207,0.25630218,-0.054374546,-0.020189999,-0.0092959665,-0.16487236,-0.2233009,-0.02661245,-0.033176124,-0.050307445,-0.017683065,-0.037564345,-0.04570916,-0.10744006,0.014708836,-0.06962323,0.42438042,0.017210977,0.018253442,-0.038530264,0.24662179
208,-0.039530028,-0.0005992009,-0.045908306,0.15151662,-0.14121494,-0.20055762,0.24875575,0.3263542,-0.14073998,0.2809264,-0.059912693,-0.034237307,-0.02445193,-0.014592522,-0.009405964,-0.067132935,0.014078555,-0.006534588,-0.05064036,0.1853566
209,0.35244453,-0.16414668,-0.05142289,-0.007556196,-0.07652187,-0.232704,-0.02141488,0.016871968,0.25345075,-0.019714488,-0.022952622,-0.012563141,-0.037919704,-0.055563774,-0.117885314,-0.024411231,0.26706937,0.045557667,0.17326671,0.08157126
210,-0.04629803,0.037605375,-0.12869449,0.13289027,-0.14159186,-0.021932906,-0.07163035,0.07012325,-0.07811046,0.13985258,-0.09956395,-0.077408254,0.0861572,0.04229103,0.19343053,0.13789812,0.020921044,0.01754782,-0.06448029,0.119740225
211,0.116355956,-0.03745623,0.0437048,-0.007885278,-0.14473182,-0.22902761,0.013715973,0.1949472,-0.034038067,0.03297383,0.115883105,-0.07179998,-0.12859076,0.05197278,-0.043513324,-0.060965683,0.014638526,0.15492308,0.007504811,-0.16410398
212,0.07268953,0.08818483,-0.10871115,0.032520864,0.0755014,-0.05417052,-0.031958546,0.006757785,-0.040604144,-0.024078866,-0.060403712,-0.061068356,-0.15422505,-0.0039133276,0.04297547,-0.04243909,-0.024030447,-0.013405058,0.0273866,-0.16401716
213,-0.050986823,-0.17545356,-0.12496417,-0.05396199,-0.2380248,0.1778099,-0.033907183,0.12200292,-0.14320192,0.27859348,-0.042426284,-0.09378637,-0.16721947,-0.1433685,0.0022145063,0.012411928,0.05373253,-0.13563001,-0.14619876,-0.18395835
214,0.20063591,-0.053304687,-0.10282348,-0.051050793,0.15306406,-0.23312159,-0.06893383,-0.02019247,0.08149851,-0.03065241,0.03098521,0.12208152,0.00844009,-0.03191428,-0.10329619,-0.03929395,0.11451792,0.06836769,0.19126005,-0.12150565
215,0.0861548,-0.12756418,-0.02170276,0.07995837,-0.06113886,0.053533025,-0.002212384,-0.015894905,-0.15278009,0.06846911,-0.06671815,0.06725528,0.021669796,-0.012239845,0.03560784,0.1203736,-0.05098338,0.0984815,0.029989317,-0.093334235
216,-0.07451448,-0.07515557,-0.04700609,0.06537203,-0.067381494,-0.2394349,0.050022777,0.50534,-0.009673065,-0.053784244,-0.027128581,-0.02449377,-0.033813305,-0.06459062,-0.11301569,-0.045068044,-0.028050324,0.036774293,0.5872495,0.3933505
217,-0.050841153,-0.14913817,0.13646181,-0.03092058,0.17721725,-0.2283086,-0.08493251,0.0044397623,-0.12232151,-0.10007449,0.05699683,0.02126699,0.124134056,0.0069025024,-0.09552663,-0.07692913,0.036562204,0.0025232998,-0.020427873,-0.13953276
218,-0.012948209,-0.12315247,-0.10614573,-0.064583376,0.1681072,0.024960686,0.08340813,0.106102265,-0.17902757,0.07543354,0.032280162,-0.07484896,-0.07124527,0.074635625,0.059521306,-0.121731214,0.050878428,0.1290142,-0.070272036,0.014191469
219,-0.08766024,-0.18683377,-0.0949728,0.08556916,-0.14319268,-0.02776801,-0.013601711,0.021762567,0.09286274,0.1139299,-0.05882152,-0.0067977807,-0.08613412,0.39875725,-0.088422924,0.22305182,0.02306354,0.15220082,0.20219329,-0.12850825
220,-0.09012845,-0.08123288,0.075881265,0.00453765,-0.114065215,0.12120887,-0.029424552,0.3367779,-0.114719085,0.16997623,-0.07356873,-0.04117986,-0.03663717,0.0011937681,0.2885539,0.22482462,0.026005875,-0.001818535,0.25537774,0.14640331
221,-0.056585,-0.16095048,-0.009037059,-0.00027203295,-0.02477158,0.1532723,-0.030004837,0.24724723,-0.08973048,-0.06389881,-0.07833686,-0.11166685,-0.034331646,-0.08087109,-0.07821586,-0.041997727,0.0009108182,-0.0050449977,-0.036903244,0.25165096
222,0.12509401,-0.034409173,-0.0037270263,0.8056511,-0.11243389,-0.1695992,0.002728621,1.2185426,-0.13738637,-0.023199324,-0.07727124,-0.06968031,-0.121834725,0.83147806,-0.021958577,0.04717005,-0.0011001215,0.6714046,-0.04850247,-0.13234206
223,-0.03389678,-0.05177853,-0.107163325,-0.042141527,0.33453572,-0.17799142,-0.020254966,-0.11485666,0.5000695,-0.14225249,-0.15636383,0.18001452,-0.049118347,-0.11705287,0.8336975,0.6787495,0.050826065,0.025114201,0.31868228,0.047693774
224,0.07584104,-0.15454409,0.09387047,-0.048814733,-0.08097938,-0.099963695,0.062025297,0.08252735,0.01620543,-0.076517925,-0.059253063,0.017215615,-0.12001224,0.08205608,0.13238086,-0.048697624,-0.03794645,0.04870897,-0.06676972,-0.10075138
225,0.07685234,-0.10419602,-0.10307438,0.0007580475,0.10079533,-0.21255483,0.0027140535,0.03469538,0.17872939,-0.10463582,-0.0006344772,0.0825814,-0.104947634,0.09387028,-0.085017316,0.16024816,0.25742844,0.101223856,0.12304503,-0.0051134713
226,0.05814175,-0.020409381,-0.10943679,-0.008512403,-0.03158973,-0.19307856,-0.04477244,0.10426418,0.05042535,-0.08995904,0.1024673,0.05779973,-0.13663058,-0.027118178,0.024597785,-0.086293794,-0.01807889,0.16018777,0.0026491003,0.023185963
227,-0.25388473,-0.14758761,-0.084330596,-0.070923194,-0.015793717,0.16346386,-0.0914023,-0.15810065,0.4817952,0.15834177,1.0644774,-0.025686251,-0.16336627,-0.078444354,-0.073271535,0.13115889,0.029979566,-0.15168205,-0.05484811,-0.12683938
228,-0.030515507,-0.17986797,-0.057658542,-0.043125805,-0.15988009,-0.050487403,-0.06792148,-0.07214898,-0.18448801,-0.043546624,0.20003235,-0.10951448,-0.10566108,-0.08015389,0.04268786,-0.032917004,0.22872645,0.16463159,0.09441967,-0.058702808
229,-0.05421309,0.06579261,0.03471664,0.03643438,-0.029645476,-0.20651454,-0.0072359787,0.015781162,0.09326779,0.15128796,0.18154606,-0.095163405,-0.08467493,-0.07767604,-0.016367003,-0.07322977,-0.03905679,0.033103656,-0.005455535,-0.09474202
230,-0.0051026237,-0.06161365,0.049819104,-0.030953225,-0.06973256,-0.1671826,-0.04860717,-0.06804289,0.0043675867,-0.09638711,0.15523823,0.06574538,-0.13833044,-0.050748874,-0.028869927,-0.112113446,-0.07071393,0.10492153,-0.06479715,-0.17075676
231,-0.08363448,-0.1895076,0.056860372,0.06148449,-0.051181927,-0.04409242,0.19891715,0.25649372,-0.10832721,-0.062235568,-0.0062714536,-0.0058539524,-0.05667371,0.0032787772,-0.075137645,-0.056887053,0.012748369,0.019799393,0.19703355,0.122813895
232,-0.029214425,-0.04266119,-0.012708221,0.13955727,-0.04890034,-0.1567659,-0.01211595,0.11534492,-0.14727029,-0.027973497,0.002269103,0.042438507,-0.083304465,-0.0024384838,-0.06032412,-0.07675725,-0.040995844,0.21605559,-0.023360861,-0.095742285
233,0.21355817,-0.031294033,-0.06503897,0.37974587,-0.101411454,0.16894335,-0.01547649,0.4845709,0.030167483,-0.116368264,0.11661152,-0.10180593,-0.029088346,0.39792415,-0.06762697,0.056403197,0.0073960647,0.2854272,-0.06173706,-0.17890784
234,-0.05614955,-0.054431424,-0.043020114,0.19237688,-0.030127034,0.06815089,0.007569329,0.10642247,-0.06212544,-0.12030948,0.0132329855,-0.056940947,-0.13717017,0.06954747,-0.1160545,-0.095395066,-0.049770888,0.20435236,0.017895777,-0.07456962
235,0.076583184,-0.03630543,-0.10446382,-0.005954533,-0.027874457,-0.23807308,-0.06514967,0.62549126,-0.10081355,-0.0079664895,-0.10293042,0.55594456,-0.17606673,0.45805648,-0.023441084,0.2962163,0.0047139567,0.46795914,-0.018870747,0.102957554
236,0.29740924,0.6915625,0.40207788,-0.033438,-0.14805646,0.040146608,-0.017176084,-0.07051168,-0.14782532,-0.11796991,-0.09571799,0.10990384,-0.17175099,-0.009025347,-0.0990877,-0.081515186,0.08763294,0.0036618793,-0.030651433,-0.09132424
237,-0.05736103,-0.0428043,0.11762802,-0.013279402,0.026805036,-0.18539347,-0.018585084,0.09376466,-0.13317439,0.09038048,-0.042052258,-0.06541065,-0.0718995,0.016400868,-0.0618684,-0.1086875,-0.0139688505,0.008788571,-0.015348465,-0.13136825
238,0.45904368,-0.096721224,-0.018900223,0.13139012,0.1843658,-0.23181812,-0.031747308,0.022294035,-0.09754074,0.004808357,-0.116525516,-0.003325113,-0.040251598,-0.030715358,0.3288409,-0.068632975,0.050318245,0.12344449,-0.064969376,-0.10354824
239,0.2622224,-0.12610002,-0.045586485,0.094332255,-0.10592507,-0.015261036,-0.001291269,0.023852237,0.27058172,0.1372419,-0.10065028,0.005199849,-0.1728973,0.116013914,-0.11403759,0.030464012,0.20020957,0.017557183,0.051658385,-0.11769858
240,-0.021743646,0.30064136,-0.06175971,-0.031184142,-0.08598621,-0.16749695,-0.047314435,0.00742181,0.19517185,-0.1060345,-0.07475126,-0.012742857,-0.024869192,-0.062086914,-0.097821906,0.004555932,-0.032157764,-0.012341548,-0.067516506,-0.041850325
241,-0.0402044,0.017598815,0.021400671,0.0025440934,-0.0054654665,0.2773765,0.016240455,0.16136684,0.036536872,0.24508952,-0.018717924,-0.009624223,-0.10088371,0.09416795,-0.044369258,-0.095960245,0.04176617,-0.0037029386,0.03783631,-0.10907783
242,0.35584953,-0.1287768,-0.12398037,-0.025953652,0.1914222,-0.19105843,-0.028509205,-0.02620539,-0.09652758,-0.08078519,-0.008064825,-0.09159937,-0.14776853,-0.07974801,0.21126592,0.22583222,0.19781618,0.09039857,-0.0067138765,-0.02903479
243,-0.02909021,-0.08166721,-0.027505264,0.034430016,-0.11522641,0.18030995,-0.087624595,0.20870116,-0.19553909,-0.0525223,-0.019941453,-0.011011621,-0.04245874,0.0153149925,-0.080003045,-0.07479459,0.039713155,0.0108641265,0.041999355,0.17632695
244,-0.09802702,-0.02544839,-0.10762071,0.00955649,0.13417241,-0.24190105,-0.054710727,0.0166695,-0.14668983,0.00018450967,-0.026456887,-0.031763792,-0.16545838,0.00725729,0.14452095,0.2689996,0.08099426,0.019825997,0.106142685,-0.16200285
245,0.003788174,-0.16107091,0.031607505,0.01329501,-0.17433721,0.15242687,0.046252154,0.13082267,-0.17157279,0.16610037,-0.0748362,-0.109985545,-0.16693433,0.12592338,-0.073577225,-0.032262813,-0.06649824,-0.070127614,-0.083750844,-0.1222416
246,-0.011380356,0.23795353,0.19570604,-0.0043317433,-0.13849427,-0.24456383,0.0029158788,-0.018630844,-0.20010024,-0.018233778,-0.10712724,-0.11482248,0.13456535,-0.05350382,-0.1060762,-0.013443165,0.028912105,0.0017188484,-0.037026428,-0.15329652
247,-0.10251787,0.15275878,-0.053749878,-0.008307726,-0.14675692,-0.12372345,-0.034830134,-0.040031407,0.21045153,-0.028032329,0.4944173,0.6625754,-0.13349788,-0.001480649,-0.039043874,-0.11788489,-0.0104495045,0.06625814,-0.022843307,0.12528403
248,-0.021935407,-0.008704216,-0.018265113,0.09700297,-0.19109198,-0.23535998,-0.041292503,0.28455648,-0.1580275,0.23575,-0.08113119,-0.014882434,-0.04661651,0.003974779,-0.080171175,-0.07373882,0.015151341,0.006406135,-0.017871916,0.18395582
249,-0.011369359,-0.13048895,-0.024931557,0.038734827,-0.045697644,-0.19523227,-0.058069848,0.1767348,0.10087616,0.0060019745,-0.089700796,0.006127423,-0.11058727,0.4575736,-0.05391534,-0.09486728,-0.011884856,0.055038463,0.28970832,-0.13291661
250,-0.03873882,-0.10732139,-0.025693195,0.0067326524,-0.10931734,0.24590778,-0.09570415,0.33459336,-0.10723487,-0.059900813,-0.10241904,-0.019221503,-0.043006048,0.18838754,-0.1157305,-0.040561788,0.0050524045,0.0027062683,-0.016786106,-0.14455916
251,-0.05801517,-0.020594636,-0.005840887,0.0055393,-0.02915364,-0.22842501,0.088894434,0.37343565,-0.13633269,-0.13088681,-0.07059692,-0.03023057,-0.11279906,0.19546737,-0.014480456,0.003408093,-0.0025107798,0.0080955615,-0.045491908,0.35641733
252,-0.06636215,-0.121505156,-0.027790831,0.0859176,-0.09076675,-0.09546885,-0.02956805,-0.022908622,-0.06752119,0.073622584,-0.03547501,0.13791344,-0.049499582,-0.020718906,0.15754238,-0.06829548,0.06355801,-0.020360934,-0.040624194,-0.1888895
253,-0.064971,0.039950456,-0.10429142,-0.030189777,-0.1780533,-0.051422376,-0.006157568,0.044866193,-0.15837556,0.24271785,-0.05919888,0.014036995,0.008310107,0.23987076,-0.013151843,-0.04098203,-0.029779414,0.053176176,0.21787016,-0.032918967
254,0.08334537,-0.039334115,-0.001602714,0.09503065,-0.12719668,-0.22421943,-0.006099883,0.026157882,0.007640792,-0.06082255,0.10818931,-0.02289694,0.16052324,0.05046045,0.25681454,-0.09175478,0.25554842,0.18465556,0.02539896,-0.11913716
255,0.18486165,-0.14513114,-0.024909282,-0.0032011543,0.079085335,-0.097226724,-0.020631803,0.023020308,-0.078977264,-0.022599842,-0.032956876,-0.06421244,-0.023098031,0.027621271,0.31538126,-0.06294369,-0.016827336,0.019032955,0.23238647,0.03361625
256,0.0066983094,0.009059554,-0.014751546,0.09749738,0.10305279,-0.006113524,0.14108847,-0.022628613,0.0026836884,0.09748274,-0.04859411,0.01575017,-0.120567106,-0.013204985,-0.06016109,0.12027462,0.112157345,-0.024370948,-0.06476721,-0.13523781
257,-0.08360563,0.08964847,-0.09302404,-0.0067444216,0.09644181,-0.020500896,0.06763192,-0.047765028,0.073681235,-0.027247831,0.05217204,-0.025221458,-0.089213155,0.07864835,-0.11472718,-0.010161248,0.06365534,0.106304914,-0.037457652,0.009767365
258,-0.059656143,-0.101824895,-0.050047405,0.18875822,-0.13944106,-0.26375505,-0.07773451,0.023660697,-0.15754148,-0.07635419,-0.09639643,0.16594408,-0.19008125,0.09371759,-0.050105825,-0.04207444,0.17242433,-0.041860178,0.04377542,-0.04109804
259,0.26074642,-0.04596365,-0.12424565,0.3232396,-0.10484337,0.24719453,-0.0012514646,0.3722194,-0.11958534,-0.007571948,-0.0775762,-0.11437878,-0.041280832,-0.073815934,-0.026934873,-0.041488938,-0.0266699,0.47870532,-0.05228109,-0.17304681
260,-0.031310033,-0.059372548,-0.040459096,0.16152607,-0.06649053,-0.24644159,0.44667283,0.4259736,-0.021650853,0.46490842,-0.1067102,-0.0919802,-0.17861201,0.23038758,-0.062637456,-0.042841062,0.012791767,0.010923998,-0.044206165,0.42366844
261,0.049967796,-0.092706904,-0.025025895,0.1621783,-0.0053429445,-0.21505043,-0.032221064,0.13597888,-0.18293138,0.046998173,-0.050366327,0.10913056,-0.08169014,0.083770245,-0.009770934,-0.09554227,0.06875047,0.147061,0.047287323,0.10987035
262,-0.07897537,-0.16260208,0.4887848,-0.0127302855,-0.072481446,-0.16575561,-0.023085497,0.0060075494,0.2726005,-0.12053013,-0.055048082,-0.06956326,0.47495717,-0.045166615,-0.017795753,0.0060204715,0.0058991336,0.0036106908,-0.038475517,0.12152093
263,0.076307476,0.06330167,-0.016538002,0.19069201,-0.08079891,-0.10428224,0.043263588,0.08246934,-0.18181857,-0.024306865,-0.050022695,-0.08656255,-0.052132115,-0.010435057,0.13755442,-0.038654596,0.083001815,0.008263892,0.042071104,-0.18919356
264,-0.07695848,-0.023274766,-0.048687965,0.042186957,-0.064931914,-0.24313745,0.004735253,0.05095137,-0.056727637,0.09163346,0.1788928,-0.014431449,-0.018044613,0.20202833,-0.097735114,-0.086562105,-0.03713239,0.062283497,0.16127504,-0.11752399
265,0.06428496,-0.085133575,-0.014392677,0.050764196,-0.07480318,-0.16319372,-6.521767e-05,0.01332051,0.0064836284,-0.082323074,-0.08424529,-0.06828922,-0.11351487,-0.015587528,-0.107178874,-0.06720886,0.1875214,0.054766297,-0.053338885,-0.020456357
266,-0.02800204,-0.08047236,-0.06650033,-0.0010073311,-0.022484029,-0.20036377,-0.04766548,0.11069037,-0.19381416,-0.015878689,0.16937117,-0.055054728,-0.030631699,0.23555563,-0.018413123,0.109696835,0.034182403,0.07064311,0.110820636,-0.13897283
267,-0.058328696,-0.09136417,-0.044001613,-0.019006765,-0.18044487,-0.20810701,0.17880479,0.11755934,-0.07536378,-0.11068663,0.028042194,-0.089315146,-0.03866515,0.22052568,-0.051576264,-0.080441125,-0.050827578,-0.043157045,-0.020459186,0.15521811
268,0.052816804,-0.15964109,-0.07794768,0.119385146,-0.12983702,-0.23692809,0.02524052,0.0021921569,0.005744542,0.021967538,-0.09348384,-0.0472583,-0.107322864,-0.034743566,-0.0037885346,-0.09260726,0.023527957,-0.01933946,-0.0050723106,0.024214
269,-0.04425576,-0.17488265,0.08107348,0.10126438,-0.1819435,-0.22356069,0.12113789,0.10600142,-0.07964678,0.01720282,-0.043716025,-0.025867557,-0.17440231,-0.011107249,-0.09384781,-0.023747427,-0.05159371,-0.025936585,0.1179262,-0.14249085
270,0.120248765,0.048308246,-0.07276025,-0.033367325,-0.18393952,-0.08049679,-0.09323478,0.1826042,-0.19299088,-0.06765713,0.02036078,0.0060211527,-0.058510624,-0.06683199,0.0833447,-0.0012290473,0.05283441,0.061931193,-0.006703363,-0.12370798
271,-0.20166035,0.08320192,-0.001394302,-0.093757294,0.13718098,-0.28015488,-0.2262668,-0.09906325,0.07600563,-0.13774765,0.00013662816,-0.01631827,-0.026928663,0.039077226,-0.2163009,-0.05786887,-0.08742525,-0.11308306,-0.03370793,-0.20784886
272,-0.039180845,-0.03849286,-0.03643425,-0.01947326,-0.16412963,-0.1254962,-0.024248276,-0.028171208,-0.066794984,0.5087344,-0.107406005,-0.034938846,-0.054467604,-0.06673797,-0.09013073,0.056498174,0.04666237,0.04798127,0.43115377,-0.12604684
273,-0.1487688,-0.25939977,0.06283461,-0.012034201,-0.40312663,0.17143148,0.018446175,0.037905637,-0.30053532,0.13094105,-0.1346876,0.0960717,-0.11224787,0.025363036,-0.13650489,-0.0068705063,-0.3144036,-0.102692455,-0.013870182,-0.31056038
274,-0.078093946,-0.01301017,-0.0399875,0.003837853,-0.08329693,-0.12516351,-0.00922724,0.047662757,-0.054713257,0.117603876,-0.09029347,0.0009138998,-0.03662714,0.2452179,-0.05230465,0.19221832,0.041558232,0.10161316,0.13400151,-0.07250392
275,-0.02962175,-0.028152024,-0.05799746,0.0005226388,-0.14058085,-0.19818115,-0.0072761322,0.16792087,-0.19012395,0.12754191,0.20499872,-0.11456865,-0.041722413,0.30674568,-0.0653378,0.25992054,0.023559831,0.14098415,-0.065924145,-0.13545929
276,0.12685855,0.023586184,-0.0066472795,0.010745755,0.060915213,-0.21625985,0.008250789,0.016106756,0.09087928,-0.06652186,-0.018398648,-0.09440261,-0.0743084,0.041430376,-0.11668449,0.067574814,0.0744682,0.048018888,-0.03405277,0.03860714
277,0.028796345,-0.031876817,-0.007858224,-0.004786951,-0.15437226,-0.20934013,-0.08382571,0.02367167,0.1361507,-0.05301449,-0.1189364,-0.069325216,-0.15907899,-0.009798096,0.29035717,0.26018316,-0.01577598,0.021206304,-0.045123827,0.10822188
278,-0.01901445,-0.09003074,0.38401744,-0.022811756,0.22689739,-0.16851258,-0.012642524,0.033887535,0.30472124,-0.09501848,-0.070019774,0.047341067,0.2750677,-0.044427212,-0.04826907,0.0015407471,-0.008682035,0.040407784,-0.010626982,-0.18788296
279,0.32138154,-0.032346178,-0.10174756,-0.011548362,0.2010296,-0.2676117,-0.051650926,-0.018239636,-0.06706908,-0.05596112,-0.03589285,0.0481871,-0.10924084,-0.05464156,0.20420437,-0.07256418,0.09473466,0.0132800015,0.22967939,-0.10873964
280,-0.035413764,0.051782098,-0.06454561,-0.05580801,-0.09130557,0.044976372,-0.06895748,-0.030622363,0.046669807,-0.06318865,0.16186401,0.114962615,0.12882037,0.029765407,-0.09672275,-0.100131765,-0.07285174,0.05300208,-0.034744434,-0.07870882
281,-0.05602764,-0.030989183,-0.034687817,0.035000086,-0.018618245,0.20292214,0.0012243306,0.032015502,0.104479544,0.1835885,-0.047051538,-0.002559327,-0.12426528,0.16336422,-0.016268512,-0.075616926,0.17788163,-0.012942984,-0.013190363,-0.14402477
282,-0.08090843,-0.0835829,-0.12489462,0.009631794,-0.1402478,-0.21442944,0.013627364,0.049014773,-0.09857448,0.13384104,0.12448281,0.013024266,-0.04670253,0.21950522,-0.014167868,0.10762567,-0.04501465,0.012075769,0.17080322,-0.022535032
283,-0.05406496,-0.14755002,-0.104401566,-0.020953529,-0.04296585,0.593799,-0.07048359,0.38548106,-0.16556744,-0.044164594,-0.043660317,-0.020157168,-0.12354311,0.16268328,-0.027697043,-0.050703283,0.017437108,-0.020720646,-0.00014996814,-0.12985355
284,0.029594662,-0.033189733,-0.057793353,0.0030149017,-0.021319473,-0.1945368,-0.084938526,0.032617442,-0.06752548,-0.015781589,-0.04746067,0.08334682,-0.16423243,-0.017099919,0.17107184,0.002642812,-0.017600104,-0.043493368,-0.028879909,-0.08030135
285,-0.049989577,-0.11725845,-0.11461705,-0.013753241,-0.07293,0.0397311,0.035985876,-0.01824244,-0.17511356,-0.087705895,-0.0922213,0.117589355,0.03709359,-0.06437111,-0.12039451,0.030366052,-0.022748942,-0.03597033,0.067016676,0.049494542
286,-0.07216658,-0.114069685,-0.061400846,-0.038378563,-0.18590325,-0.104644924,-0.0038705324,-0.0009091872,-0.03427146,-0.034511946,-0.024106467,-0.020234255,-0.109699644,-0.027943164,-0.047836076,-0.10710024,0.17758048,0.15536407,-0.017018164,-0.034911
287,0.0013582116,-0.101527065,-0.12120918,-0.005658243,0.020044392,0.07955442,-0.06258721,-0.051196523,0.10639787,0.03701763,-0.005878443,-0.074881196,-0.08664068,-0.06360788,0.07293949,-0.0559467,0.08955733,-0.04553066,0.039438486,-0.089607485
288,0.41971833,-0.18599479,0.0059293224,-0.11287803,0.2948826,-0.24536774,-0.13507044,-0.13494197,0.4327827,-0.13951144,0.09651685,0.31437376,-0.17520595,0.18639968,0.35612178,0.41430256,0.08561525,0.013661107,0.29585123,0.22835775
289,-0.09059037,-0.090049565,-0.028679779,-0.046612326,-0.17883061,0.5001086,-0.05033905,0.32610118,-0.058546126,0.49396637,-0.056321755,-0.03466034,-0.18478186,-0.038942285,-0.041391987,-0.10536729,0.06314965,-0.046694703,-0.0020692986,0.4668673
290,-0.012741363,-0.047614727,0.00737902,0.097498104,-0.1857206,-0.22998609,-0.0014796327,0.15179104,0.059465222,-0.0048839953,0.048873886,-0.033610824,-0.1471384,-0.0165192,0.113864146,-0.091645315,-0.023563335,0.05299936,0.05302165,-0.01129318
291,0.055192284,0.14911956,-0.08517605,-0.016455295,0.053513717,-0.045675997,-0.029862648,0.18676867,-0.12709838,-0.11481199,0.10427011,0.03948653,-0.12681995,0.008713108,-0.0860608,-0.043064076,0.11123573,0.059833415,-0.020802004,0.11831225
292,-0.09188672,-0.1350407,-0.11205664,-0.0027695366,0.14498799,-0.2213682,-0.094117194,0.023331454,0.23424315,-0.015226816,-0.06112067,0.00901322,-0.02961713,0.09020315,0.1772884,0.23754568,0.05240184,0.13229388,-0.0051894495,-0.10487295
293,0.063767865,-0.11681072,-0.06886034,0.2596749,-0.18539782,-0.24647126,-0.08735082,0.49041218,-0.09479065,-0.0044182837,0.17850682,-0.039969534,-0.06054525,-0.02903316,-0.03033585,-0.06306893,-0.043472197,0.41368204,-0.0005656686,-0.09239332
294,-0.056012064,0.026472226,-0.04894081,0.037178084,-0.10863076,-0.25168267,-0.015659591,0.09734992,0.1101078,-0.03550363,0.032654643,0.060200077,0.10433203,-0.027764315,-0.052179202,-0.033511028,-0.03416467,0.11287187,-0.032208342,-0.16336332
295,0.08618143,0.055718523,0.122622564,0.07484281,-0.06638686,-0.22770546,0.00770639,0.18661523,-0.18916374,0.06471699,0.07868992,-0.07352339,-0.06755409,-0.022839446,-0.0052759503,-0.06818243,0.044944264,0.05266042,0.09714328,-0.14929521
296,-0.030285474,-0.08830947,-0.06785552,0.10767673,-0.00984408,-0.24808255,0.28646603,0.2275924,-0.10301263,-0.037859324,-0.02335011,-0.012597098,-0.093899556,-0.0046125567,-0.12021204,-0.112712786,-0.0057341876,0.030733474,0.18455862,0.21556188
297,0.026463723,-0.16098547,-0.110629566,0.14623947,-0.085615635,-0.20029223,-0.07588078,0.1297822,-0.091121614,-0.023293192,0.06340702,-0.05023691,-0.08783959,0.060574412,-0.13513356,-0.11634126,-0.050328676,0.17874408,0.011185337,0.083365984
298,-0.052724198,-0.17236868,-0.047442846,-0.035118185,-0.11134542,0.36392736,0.26545888,0.034686968,0.26746482,0.40566695,-0.058312926,-0.019544415,-0.19215529,0.14696428,0.10823087,0.1412762,0.14625539,0.010115713,-0.0561886,0.44651094
299,-0.050470844,-0.107494935,-0.065156884,-0.035284206,-0.1330469,-0.17176162,0.23520622,0.37496883,-0.16550556,-0.0196662,-0.06985602,-0.02761546,-0.12257051,-0.04496277,0.11306172,-0.046299998,0.6144001,-0.030684726,-0.06055543,-0.05426683
300,-0.089692324,-0.13762563,-0.006005079,0.008271153,-0.15415226,-0.26641107,0.26995015,0.08007685,-0.03459223,-0.08696726,-0.034111008,0.0024861007,-0.106181584,0.08420322,-0.009578355,-0.093443036,0.006504542,0.0051062326,-0.01222235,0.2517839
301,-0.02786687,-0.18710011,-0.019716986,0.00075664266,-0.031649508,-0.07296257,-0.00047334423,0.036942076,-0.05508821,0.17144257,0.18457569,0.0045397235,-0.034219887,0.15383726,-0.009198451,0.110144295,0.09324917,0.06542304,0.14853829,-0.12051241
302,-0.015464728,-0.012251954,-0.03099634,0.018784031,-0.1107586,-0.2632061,-0.059388243,0.07489216,-0.105272144,0.2090081,0.19030139,0.00068475935,-0.030028272,0.3899627,-0.07408347,0.24379681,0.042807736,0.064195484,0.18310124,-0.0831514
303,0.20396729,-0.14461291,-0.021335552,-0.012344736,-0.15044308,-0.16352016,-0.020385372,0.0028386696,-0.14914928,-0.074734285,-0.08350298,-0.049418136,-0.025376221,0.0085695535,0.3277542,0.33888835,0.16068515,0.015567073,-0.05803334,-0.17914465
304,-0.040677343,-0.063417606,-0.010302204,-0.002888012,-0.020722171,-0.24701054,0.33678567,0.21973604,-0.08761137,-0.048753466,-0.037420474,-0.081463225,-0.05459287,0.15530986,-0.020880554,-0.06947054,0.07515163,-0.007270851,-0.07362702,0.25770327
305,0.19737859,-0.1452691,-0.0591267,-0.041247986,0.21987599,-0.19657682,-0.124568105,0.03453512,0.22811061,-0.086342216,-0.029646697,-0.06115156,-0.15104382,0.10051586,-0.12553044,0.07610332,-0.06327084,-0.06609364,0.06517268,0.05135557
306,-0.07869028,0.35842642,-0.12320963,-0.004323895,-0.124040104,-0.20101959,-0.068414986,0.28437564,-0.1398749,-0.008155885,-0.102319375,-0.06957986,-0.02890974,-0.033868067,0.044534747,-0.053933155,0.47846553,-0.01971331,-0.02625901,-0.018534245
307,-0.05115227,-0.08937899,-0.05249253,-0.0052287728,-0.11794921,-0.2630876,0.047119133,0.07073167,-0.19152527,-0.05131195,-0.004187645,0.094960056,0.041358784,0.011499875,-0.095620476,-0.042542934,0.14086467,0.09561079,0.09424668,0.06068067
308,-0.10231835,-0.07530829,-0.07624959,-0.08993471,-0.16988029,0.59102833,0.50199115,0.040312495,-0.02911384,-0.08464245,-0.21100505,-0.04246354,-0.18131594,0.14190742,-0.122286215,-0.04077011,-0.010314931,0.006443537,-0.05679588,0.55018747
309,-0.025824001,-0.18302688,-0.006696201,-0.0030352627,-0.06326595,-0.09462153,0.0020037617,0.0121675115,-0.16742435,-0.00282686,-0.008057671,-0.11763623,0.132428,-0.057213742,0.4810716,-0.10378886,-0.045749526,0.25316045,0.01676747,-0.07443615
310,-0.09119833,-0.08706957,-0.03289135,0.028692884,-0.114226736,-0.15179263,-0.025332643,0.04618998,0.25261688,0.0043891612,-0.019196883,-0.09546679,-0.19034797,0.031715307,0.33794412,0.1590425,0.06841895,0.043199804,0.09559644,0.0966619
311,0.6255487,-0.095588155,-0.10348598,-0.016763085,-0.06762753,-0.2559711,-0.00019903123,-0.02041747,-0.12019036,-0.1213953,-0.031309154,-0.074997224,-0.12246878,0.03587243,-0.114162065,-0.03755723,0.53250027,0.03814641,0.28567186,-0.0761563
312,-0.04328472,-0.04308244,-0.011390802,0.4617725,-0.037605297,-0.19495821,0.07442323,0.46677434,0.014706359,-0.011138959,0.08130989,0.5284161,-0.045631923,0.39398405,-0.018198196,0.15289597,0.014407898,0.35420966,-0.00952883,0.037846416
313,-0.07500362,0.30722687,-0.10279274,-0.058123402,0.10096021,0.053300012,-0.059291236,-0.0076619354,0.13119987,-0.058571808,0.18880418,0.16202137,-0.1804203,-0.026203927,-0.045090962,-0.023752676,-0.06825564,-0.046301916,-0.06783589,-0.09885659
314,0.046830334,-0.0033643937,0.09992089,0.08018384,-0.10210002,-0.03356619,-0.048301022,-0.020776045,-0.16690962,0.085817315,0.042127624,-0.07227668,-0.12197804,0.02907122,-0.05576232,-0.04986228,0.14682238,0.03273756,-0.025719529,-0.13244405
315,-0.104513556,0.037721284,0.0012825115,0.020037081,-0.054654956,-0.24323434,-0.04437454,-0.0061490308,0.17613873,0.08846382,0.26491606,0.04890181,-0.13135095,0.12956673,-0.019015625,-0.10302059,-0.045579422,0.09500473,-0.041143123,-0.03301145
316,-0.09420897,0.0807504,-0.017075181,-0.010294888,-0.17524515,-0.24523793,-0.019822482,-0.008735417,-0.18561181,-0.11877964,0.30361593,-0.04283455,-0.10879455,-0.034654737,-0.007434898,-0.03476408,-0.019463459,0.0045227106,0.045776367,-0.1187497
317,-0.08734034,-0.10163399,-0.04975212,-0.027104134,-0.028758144,0.14890002,0.0010045236,0.051433783,0.18764757,-0.051185314,0.20533724,-0.012196815,0.14780733,-0.07113207,-0.076888435,0.065940395,-0.0331843,0.011611647,0.0066574304,0.003353169
318,-0.08104611,-0.06581277,-0.0025070552,0.008336316,-0.19696651,-0.24080685,-0.09943284,0.031230431,-0.1834707,-0.060989015,0.19948436,-0.06216802,-0.11727978,0.2491872,-0.07429308,0.1440854,0.03269766,0.12929614,0.20637381,-0.1620553
319,-0.076227605,-0.13778405,0.38636115,-0.016862107,-0.1971543,0.09466752,-0.010168578,-0.039633255,-0.06706934,-0.015392876,0.34774935,-5.2923453e-05,0.3044303,-0.045465216,-0.07972124,-0.047110405,-0.055378716,0.009298052,-0.068857424,-0.14230748
320,-0.08494685,-0.13358544,-0.015436501,0.09314756,-0.11518439,-0.26169226,0.26738563,0.21160887,-0.010348858,-0.029820705,0.016700787,-0.109475836,-0.09784513,-0.05798585,0.15114471,-0.10408746,-0.0012273063,0.008568135,0.17973025,0.13712624
321,0.103375465,-0.09054909,-0.03709617,-0.004371583,0.12807654,-0.033075757,-0.08090787,0.021164043,0.16115783,-0.027221417,-0.025222594,-0.10760452,-0.093382396,-0.02413591,-0.06742703,0.16069776,-0.030456109,0.055762213,0.09684843,-0.14524476
322,0.8277365,-0.13259937,-0.0727994,-0.02317251,-0.08095959,-0.21588464,-0.081825465,-0.083713815,-0.07979007,-0.090842076,-0.067668,-0.0030510433,-0.080100775,-0.03954659,-0.07184712,0.6024373,0.6274561,0.014141962,0.2820532,-0.14298053
323,-0.068416096,-0.13568927,-0.09548117,-0.014250999,-0.15526615,0.40692407,-0.08711349,0.46792927,-0.015959473,0.33415765,-0.099472284,-0.06451777,-0.05114175,0.16322622,-0.10406642,-0.04832827,-0.04254733,-0.017990462,-0.0035482617,-0.10303549
324,-0.014784617,-0.16761145,0.04217716,0.012217264,-0.11087798,-0.23847972,0.28142437,0.24640858,-0.0028086563,-0.10478377,-0.0435005,-0.026861595,-0.16463955,0.0018915292,-0.09097596,0.15577304,0.0057939426,0.021525724,0.1878801,0.1338762
325,0.17794608,-0.09068192,-0.02858296,-0.02124501,-0.15503912,-0.24128273,0.05209742,-0.11932983,0.03840782,0.00951942,-0.016603317,0.04624826,0.065819696,0.11798874,0.17675398,-0.10699669,0.11457013,-0.0024917182,-0.06684043,0.11387255
326,0.08841864,0.0638452,0.19924952,0.10054549,-0.16227536,0.10031628,0.014345627,0.03514571,-0.095353775,-0.009042778,0.18543017,0.3407738,0.16791339,-0.07177062,-0.035862815,0.012517697,0.010559131,0.11549857,0.0123584345,0.037557643
327,0.4234364,-0.11998595,-0.09809797,-0.0877142,-0.02637968,-0.24220482,-0.09197198,-0.14507565,0.07378316,-0.102317214,-0.1389572,-0.09800593,-0.123599984,-0.14621827,0.8005818,0.6332949,0.2881129,-0.14601305,0.16939832,-0.17762473
328,-0.0007106143,-0.059220318,-0.073969945,0.45256814,-0.07399124,-0.19103767,0.07698216,0.27382395,0.0046633203,-0.0018307826,-0.078005716,-0.07545616,-0.1763859,0.47046876,-0.013576043,0.08460617,-0.0200521,0.36524054,-0.005221115,0.1684689
329,-0.07515092,0.30809626,-0.058130417,-0.02058957,0.2062849,-0.19802518,0.2027485,0.30136353,0.11671911,0.0038942585,-0.062235057,-0.008540813,-0.17313512,0.16315354,0.077637814,-0.08356914,-0.030204376,0.0016902752,-0.06252111,-0.045063343
330,-0.042274248,0.13607056,-0.02370107,-0.015079042,-0.027228255,-0.23001176,-0.051137444,0.05410653,0.010044088,-0.0795151,0.22621953,-0.049700733,-0.03288634,0.30093607,-0.06516686,-0.09572129,0.017580358,0.0037992361,0.31292385,-0.0472771
331,-0.006802414,-0.18750873,-0.018124634,-0.0197568,-0.15677854,-0.07320025,0.15245323,-0.0024793854,-0.19134563,-0.024317604,-0.04803813,0.09187174,-0.082647815,-0.00039517475,-0.10597187,0.29266858,0.09476956,-0.011008228,0.34019426,0.2864066
332,-0.01746908,-0.09318241,-0.008047613,-0.0018212658,-0.07413098,0.025464311,-0.08994211,0.013310833,-0.16488819,0.07379609,0.3190905,0.0010585855,0.073410966,-0.015564278,-0.12148326,-0.07320824,0.009565103,0.032469936,-0.008811602,-0.13316861
333,0.04139951,-0.1708616,0.30131236,-0.019194279,0.1519172,0.19092336,-0.015557089,0.007023296,0.3856798,-0.08516348,-0.11824217,-0.08486039,-0.16325834,0.013739297,-0.011966208,-0.095979005,0.012481917,0.05001038,-0.034177,-0.16601413
334,-0.08102846,-0.14413556,0.11600669,-0.076031506,-0.022835325,0.29314741,0.35573822,0.2848518,-0.12478999,0.112646416,-0.087860204,-0.03730475,-0.036061432,0.032458093,0.35783777,0.3440919,0.02236818,-0.012371497,0.27721816,-0.16164853
335,-0.0946275,-0.0429945,-0.0324847,-0.022301154,-0.084376864,-0.21970575,-0.07857649,-0.0013657622,0.1617239,-0.111744806,-0.0528744,0.079211436,-0.07237434,-0.009837125,0.3229296,0.12693486,0.045288645,0.029466964,0.076069064,-0.17147245
336,-0.089968026,-0.041406386,-0.04511432,0.15209624,-0.120571144,-0.14262582,-0.070886806,0.09147649,-0.0015079906,-0.065636255,-0.053747885,-0.09063093,0.14921065,0.10040486,0.25158814,-0.07762468,-0.05347311,0.1319526,-0.0735514,0.11876733
337,-0.10176365,-0.042304326,-0.027014658,0.017765237,-0.049955383,-0.259606,0.0011629466,0.0452685,-0.16561764,-0.08972634,0.11285532,-0.11044613,-0.10432378,0.17387754,-0.10982084,0.106025524,0.022353593,0.018695494,-0.031673126,0.018797059
338,0.108235694,0.05666373,-0.110272616,-0.020043354,-0.18910286,-0.0050359196,0.00089908676,0.12856033,-0.17233217,0.067033984,-0.05706804,-0.07541479,-0.12078276,-0.059325915,0.0026680902,-0.11055801,0.17689343,0.04417345,0.115854524,0.028144186
339,-0.20115921,-0.09541121,-0.12732899,0.43882954,-0.11250481,-0.19787206,0.5359275,0.0940187,-0.120591916,-0.07641616,-0.13440298,0.024385743,-0.10510329,-0.088990085,0.63398737,0.1752208,0.019736687,0.05748925,0.47989646,0.5339943
340,-0.00484077,-0.019997127,0.05327911,0.048359416,-0.023053844,0.05047044,0.085137494,-0.031001246,0.043427967,-0.09352598,0.034493938,-0.08713249,-0.096793994,0.099824466,-0.0909324,-0.036088824,0.060737684,-0.005491219,-0.065379106,-0.08283609
341,0.047920924,-0.05774828,-0.101662576,-0.0054493533,-0.06896261,-0.20918797,-0.014107341,0.056247722,-0.15212724,-0.05040339,-0.05724989,-0.028111773,-0.15547784,-0.080796346,0.032549735,-0.023967173,0.012753344,0.12881938,-0.0069140685,-0.15806377
342,-0.018124059,-0.123048045,-0.0051953048,0.17335501,-0.14121068,-0.15814765,0.24551167,0.04698957,-0.1935946,-0.028702118,-0.070603415,-0.11031504,-0.1380075,0.0039131767,0.48241067,0.20235436,0.06736561,0.017895343,-0.05135038,0.12175083
343,-0.041379604,-0.1617,-0.018313494,-0.01784725,-0.17290986,0.061928958,-0.04906022,0.004537931,-0.045808464,0.0712871,0.38831687,0.107068725,0.08883338,0.18829398,-0.022277309,0.11004783,-0.022567041,-0.0011916073,0.014998594,-0.05311122
344,-0.070610814,-0.035964213,-0.065862514,-0.009946784,-0.017906975,-0.20592779,0.16896345,0.049335428,0.42264065,-0.11439902,-0.07140405,-0.006299783,-0.12697783,0.046673987,0.122462735,-0.114475325,-0.0006677704,-0.010672256,-0.048049025,0.35215044
345,-0.05423212,-0.09416253,-0.07484056,0.0670948,-0.1274962,-0.2162499,0.012995935,0.020520933,-0.14276284,-0.0977517,0.11875628,-0.069287494,-0.14369582,0.2696496,-0.11545397,0.13535544,-0.03616808,0.014813091,0.13227262,-0.0150310155
346,-0.061176088,-0.18469527,-0.050785784,0.023581885,0.042345155,-0.24620451,0.16953523,0.05235775,-0.18726146,-0.03371585,-0.020350479,-0.10509836,-0.09163811,-0.039393026,0.050730076,0.16633609,-0.04255224,-0.014878639,-0.0319707,0.14019267
347,-0.076719604,-0.012323313,-0.060763363,0.008774513,-0.06426034,-0.14190009,0.027482396,0.04513369,-0.12606889,-0.020710375,-0.11555234,-0.085468695,-0.119346105,-0.035285857,-0.017583907,-0.021666799,0.15198809,0.19453561,0.03754031,-0.056111
348,-0.037018634,-0.009950645,-0.09424729,0.015448738,-0.11939101,-0.071868636,-0.078545615,0.003949731,-0.1327971,0.16003318,-0.07120109,0.008675274,-0.09591167,0.33883208,-0.014163755,0.17768057,0.03014899,0.13063978,0.2395758,-0.18308845
349,0.34396434,-0.14495814,0.68107253,-0.025098056,-0.012027573,0.47099078,-0.0339462,-0.11289947,0.45633316,-0.0447225,0.73674375,0.14441313,-0.14951815,-0.028647825,-0.02260645,-0.078799605,0.006706531,0.027726624,-0.035381075,-0.029604428
350,-0.052851547,-0.1688179,-0.1075616,-0.011010563,-0.15040508,-0.18680777,-0.07940711,0.34558868,0.008735681,-0.025046322,-0.03725887,-0.016092801,-0.09306343,-0.07082879,-0.047442615,-0.07339515,0.011931542,-0.012921729,-0.009459398,0.39891356
351,-0.030582577,-0.100366816,-0.039224762,0.11926369,-0.109049566,-0.2507924,0.25888687,0.052488472,-0.10311846,0.03625242,-0.0190214,-0.002262132,-0.008548475,0.0024002772,0.31792957,0.20955884,0.016160235,0.026720336,0.04595723,-0.18420336
352,0.09914188,-0.09123496,0.041296333,0.03528802,-0.13123445,-0.16111127,-0.022390284,0.028282784,-0.15535662,0.007271,0.15334825,-0.11035258,0.04987865,-0.0063630748,-0.09120679,-0.09616484,-0.0048548225,0.06281193,0.005226442,0.024819966
353,0.09218532,-0.10617881,0.059401978,0.0005066473,-0.12862813,-0.043886553,-0.0028421055,0.0062793572,-0.054604564,-0.08422943,0.07290039,0.041638438,-0.14593191,0.054568484,-0.030655527,-0.06638287,0.002432192,0.019119015,-0.03576177,0.009686661
354,0.28943074,-0.159737,0.35845998,-0.06115942,-0.08584269,0.6327403,-0.08442399,-0.08864932,0.45975137,-0.057915583,0.763592,0.9152304,0.46902966,0.024186172,-0.059195276,-0.12978955,0.0036361553,-0.033726256,-0.053014286,-0.111277975
355,-0.24089804,-0.11431923,-0.1536781,-0.015349837,-0.2347948,0.29382533,0.32414353,0.2592278,-0.16623665,0.36815244,-0.08187089,-0.12349235,-0.19744633,-0.008670087,-0.12137202,-0.03889093,-0.0077697956,-0.1505853,-0.22495331,0.26725575
356,-0.07271647,-0.007801831,-0.07761118,0.07062872,-0.077861436,-0.25334674,-0.08119944,-0.031111827,-0.09174696,-0.12642173,0.32989675,-0.010582469,-0.09834457,-0.008177431,0.8258943,-0.03419485,0.29971126,0.3599654,-0.019149447,-0.15531619
357,-0.10316964,-0.09317346,-0.012129038,0.0064233937,-0.121963754,-0.15432432,-0.0107021965,0.11350917,0.02546378,-0.034303464,0.14513949,-0.038911074,-0.06540165,0.30213428,-0.015500766,0.18403588,0.04859542,0.15806948,0.24185716,-0.17062266
358,-0.054945465,-0.1622003,0.03917037,0.004890435,-0.030812897,-0.21783617,-0.003390018,0.035141993,0.09937416,0.12373674,0.27273464,-0.11005045,-0.052885685,-0.07918823,-0.10954902,-0.09783903,0.01766049,-0.008835636,-0.0035062,-0.027276918
359,-0.102293566,0.066541255,0.14182717,0.009150786,-0.0035572571,0.071487494,-0.050579887,0.1001065,-0.011090113,0.060421307,-0.077907756,0.08467243,-0.13947582,0.049413964,0.045757104,0.011212143,0.05948571,0.037602685,0.08163344,0.08420232
360,-0.04433237,-0.17742878,0.10738261,-0.009548756,-0.17301603,-0.1315541,0.00461015,0.91967756,-0.056614596,0.13084808,-0.10842142,-0.10674123,-0.08671179,-0.011476375,-0.09074926,-0.07728754,-0.005910118,-0.0060521443,0.5409042,-0.108256206
361,0.30859864,-0.08947471,-0.08912371,-0.018011004,-0.07411738,-0.199574,-0.08192423,-0.011159465,0.43428582,-0.04488896,-0.03002399,-0.084763646,-0.16792342,-0.041699417,-0.095286995,-0.10301313,0.671069,0.016579771,0.062588744,0.32143316
362,-0.1281792,0.21053421,-0.057736393,-0.06538851,-0.18333973,0.0006938068,0.12881638,-0.017678391,0.047282696,-0.030546356,-0.014301448,0.010850715,-0.07633205,0.16741945,-0.08831773,-0.10023334,0.1543526,-0.09861789,0.050964132,0.037750803
363,-0.049288683,0.06461598,-0.0151243955,-0.011431555,-0.09840096,-0.19325438,-0.005850208,0.072189815,0.07632671,-0.08838314,0.26440412,-0.04761726,-0.113502644,0.3509776,-0.018691529,0.24961928,0.00404842,0.18814592,0.29907674,-0.068118714
364,-0.028660376,-0.17322977,-0.018233093,0.40341026,-0.030805873,-0.1944442,0.034268185,0.3922659,0.06674794,-0.005495462,0.0932032,0.42442018,-0.028521823,0.28447363,-0.03954474,-0.045181632,-0.00027458233,0.35306072,-0.0665307,0.13672976
365,-0.08984891,0.118613556,-0.00028186862,-0.032360803,-0.14902964,-0.044935565,-0.07558876,-0.027861848,-0.17537643,0.19496828,0.28168046,-0.081727445,0.14809631,-0.010072643,-0.018309334,0.16555852,0.014716575,0.018469233,-0.07599164,-0.05571551
366,-0.19744685,-0.047056563,-0.07261578,-0.13009028,0.0338232,0.28144768,0.37147367,0.3158554,-0.16668412,0.39703542,-0.20331171,-0.21365532,-0.076698035,0.0063690385,-0.1648451,-0.14551878,-0.17641068,-0.14963567,-0.17447768,0.2936472
367,-0.07621628,-0.13959447,-0.01121258,-0.003618014,-0.07811352,-0.20096076,-0.010723841,-0.00920319,-0.18665157,-0.016151022,-0.05145235,0.13099174,-0.18403766,-0.03937434,0.55017686,-0.036638115,0.070749804,0.0068769786,0.30807716,-0.15729573
368,0.26121545,-0.16287023,-0.073154196,-0.0023857744,-0.127324,0.3133384,-0.01563695,-0.05650928,-0.16448617,-0.018084932,-0.0760677,0.49818742,0.40497768,-0.05155552,-0.01820669,-0.11263813,0.012578499,0.09794443,-0.026361937,-0.17099737
369,0.08862503,0.009242343,-0.1274469,-0.023866173,-0.08030716,-0.15881516,0.074547894,-0.025047634,-0.12555473,-0.08212695,-0.07998077,-0.08442295,-0.17476378,-0.06708632,-0.10436086,-0.055866253,-0.029867638,0.020251816,-0.06536328,-0.14144824
370,-0.0642036,-0.10785263,-0.109521456,0.003430524,-0.17268054,-0.22729817,-0.060032804,0.18129106,-0.16406557,-0.04196164,0.2115175,-0.004003923,-0.10326048,0.32114688,-0.12384178,0.29838675,0.010568751,0.034537893,-0.0074926596,-0.038315743
371,-0.06908963,-0.02625074,-0.0147451935,0.12087948,-0.007726755,-0.23794068,0.6633239,0.530926,-0.16061994,-0.07886277,-0.06030003,-0.010352503,-0.10738116,-0.037255757,0.48732767,0.3444132,-0.038625862,-0.021890711,0.5366647,-0.09941529
372,0.24969748,0.038403526,-0.111760534,0.09729816,0.18223856,-0.049082533,-0.037558593,-0.0010183869,-0.11507053,-0.034700174,0.0077661183,0.065156095,-0.0038721887,0.10759749,0.24195774,0.11765539,-0.029470429,0.06069426,0.05511244,-0.08302773
373,-0.105923474,-0.10462621,-0.079055406,-0.028276885,-0.15089999,0.44256493,0.49554768,0.40482864,-0.04693016,-0.08167414,-0.07212863,-0.0058178487,-0.09185774,-0.05190328,-0.02982141,-0.036788948,0.0653105,0.009387302,-0.03391015,0.4272089
374,0.15435581,-0.037773557,-0.011061227,0.029170606,0.0788421,-0.060224153,0.020927558,-0.015565952,0.09250681,-0.011803696,-0.0617472,-0.022854893,-0.10489326,-0.079977036,0.17355874,0.21780524,0.04038559,0.06802768,0.20548172,0.04352033
375,0.063855916,-0.16339278,-0.12038859,0.10471537,-0.0490424,-0.25945526,-0.052466888,-0.012407991,-0.14915612,-0.037230246,0.14359653,-0.058145378,-0.051956788,0.11502791,-0.1198553,0.061417703,-0.05313111,-0.019452685,0.08870116,-0.17413002
376,-0.014149337,0.07431638,-0.011545981,0.08651339,-0.1530679,-0.20330462,0.06674916,-0.013267213,-0.18796106,0.09449262,0.055089284,-0.038031116,0.06833822,-0.06716393,0.065122895,-0.014886909,0.004010159,0.09470018,0.05436062,0.042939544
377,0.07865339,0.17618784,-0.12564698,-0.041326422,-0.09777064,0.054213446,-0.034629744,0.0024531258,0.04796681,-0.0672893,-0.09204926,0.13786492,0.11999634,0.0015417469,-0.0023388346,-0.021060793,0.038826853,0.02136074,0.052676853,-0.13868836
378,-0.044337496,-0.018526133,-0.014078523,0.011444769,-0.1476732,-0.19028896,-0.05902852,0.32024437,-0.11855952,0.25274304,-0.038960136,-0.100274034,-0.042224824,0.08090217,-0.036074154,-0.00214687,-0.006835947,-0.0039378596,-0.039182182,0.2789277
379,-0.08957725,-0.020476623,-0.12130381,0.19283351,-0.13852252,-0.13273129,0.30990916,0.31875753,-0.15824671,0.32192683,-0.02052745,-0.0743517,-0.14491113,0.02724385,-0.08604571,0.022377383,0.03524476,0.0047662864,-0.039512306,0.2774206
380,0.35082954,-0.13780908,-0.120332174,0.53243905,0.58608806,-0.254229,-0.00609059,0.06857346,-0.13112916,-0.08394367,0.32101813,-0.051303472,0.05802527,0.029959686,0.7986242,-0.08396341,0.37192038,0.40147826,-0.05190864,-0.06421698
381,0.2486637,-0.14681633,-0.044613652,-0.0025433449,0.11685058,-0.26640987,-0.048900433,0.06676277,-0.1514767,-0.0011610175,-0.015068211,-0.01267403,-0.10893964,-0.0005972279,0.32266766,0.35960555,0.050174605,0.011119205,0.27421638,-0.14085968
382,0.2395047,-0.18085021,-0.066147774,-0.12236341,-0.18857445,-0.21161942,-0.045288276,0.017667634,0.2781917,-0.10463074,-0.055257313,0.072622254,0.011142521,-0.04521843,0.111272745,0.19957305,0.06836463,0.0052218447,0.11211369,-0.11074774
383,-0.1050975,-0.07621149,-0.046424504,-0.022492915,-0.05362831,0.12809074,0.091377206,0.07797582,0.045377597,0.06214707,-0.064010024,-0.029434621,-0.15490767,-0.015642907,-0.09006137,-0.06384177,-0.00018316484,-0.0035642614,-0.06653557,-0.17472231
384,-0.04525955,0.04179407,-0.10379335,0.08638609,-0.12906164,-0.13008222,-0.02218987,0.008947601,-0.07402294,0.016316714,0.08363227,0.03540212,-0.09034579,0.0065895626,0.08200934,0.07368265,0.0660138,0.067742154,0.025666805,-0.026381744
385,0.028276177,-0.18309721,-0.01026598,-0.021263225,-0.010145344,-0.09211015,-0.08989089,-0.012411308,-0.13482416,0.08216353,-0.11492219,-0.053563777,-0.0954138,0.053642303,-0.10828085,-0.028063145,-0.0032284826,-0.012128092,0.0048973677,-0.17292947
386,0.29371208,-0.10349808,-0.02676418,-0.015855653,0.21192244,-0.19097114,-0.039031494,0.063770935,0.29394576,-0.027044332,-0.09681709,0.06126765,-0.036578555,0.004311056,-0.051977463,0.23183481,0.2601414,0.028042814,0.13468508,-0.120997585
387,0.15758692,-0.017196588,-0.055259928,-0.023538055,-0.1741848,-0.2430325,-0.06557566,0.060558453,0.2657087,0.11692932,-0.00083290983,0.046902094,-0.05057241,0.17194273,0.027070811,-0.11728428,0.24055864,-0.023146713,-0.09484801,0.27255568
388,0.12110402,-0.04576395,-0.1075877,0.009230742,-0.08168466,-0.07274691,0.028539056,0.023972083,-0.08469836,0.006564711,-0.051391855,-0.10842809,-0.030746594,0.03237346,0.24615318,0.19071205,0.040976394,0.019353881,0.075326756,-0.068006866
389,0.20470701,-0.019397194,0.15697406,-0.0016781606,-0.049736526,0.12838711,-0.015465811,-0.019447692,-0.11858617,-0.009415839,0.27736625,0.27065375,-0.12657246,-0.05903921,-0.026817348,0.06418126,-0.025930565,0.15222166,-0.038849093,-0.17313147
390,-0.059311975,-0.021559482,0.011325168,0.16706446,-0.042702697,-0.24609557,0.31678402,0.37290263,0.008504062,0.17022303,-0.11442507,0.012693473,-0.036906004,-0.049447577,0.23569603,0.16840458,0.02540874,0.0040186928,0.18620043,-0.13361764
391,0.16124108,-0.026689425,0.045558397,-0.037951957,-0.12378801,0.08321427,-0.012474306,0.018277328,-0.10164059,0.00081470225,0.2896274,0.26274535,0.08519409,0.09030501,-0.013050832,-0.06361719,0.007063067,0.17037332,-0.01926337,0.053276405
392,-0.027970472,-0.10741578,-0.017699618,0.0104942545,-0.122638054,-0.07697612,0.28548166,0.39367023,-0.039690558,-0.087736115,-0.030979048,-0.0075131613,-0.17050575,-0.022901958,0.23573755,-0.04503691,-0.01227793,0.02944701,0.2926468,-0.058673564
393,0.11519783,-0.05099618,-0.11508258,-0.030192733,0.2531642,-0.10643133,-0.010334987,0.019381445,-0.15112099,-0.07313584,-0.16092014,-0.066868335,-0.15773894,-0.0028210864,0.20351604,0.02278475,-0.012260919,-0.032105315,-0.06399904,0.046184137
394,-0.04514396,-0.040398594,-0.18744183,-0.05488037,-0.18420522,-0.20065024,-0.18718575,-0.1180304,-0.23058175,-0.11714345,-0.1006869,0.002166172,-0.13497244,-0.054157685,-0.11422279,0.14104432,-0.12054683,-0.1404981,0.13590088,0.06725697
395,-0.07295696,-0.008715987,-0.07156693,-0.031883143,-0.15774328,-0.20795183,0.18787304,0.23314556,-0.094936766,-0.07107166,0.032487698,-0.042538844,-0.05024415,-0.04076877,-0.072397225,0.0736754,-0.0398582,-0.0039619408,0.10887125,-0.14044125
396,-0.05082813,-0.04621686,-0.019944914,0.07223842,-0.03709572,0.021354081,-0.071131006,0.13098778,-0.011526208,-0.017705804,-0.05506561,0.056635074,-0.17551571,0.030220855,0.09413615,-0.09638549,-0.008895325,-0.021645358,0.14379841,0.11556569
397,-0.034328572,-0.10397481,-0.021577585,-0.036839925,-0.0613852,-0.18536706,-0.03917655,0.006664018,-0.1078818,0.06323172,-0.09377234,-0.078056484,-0.1860284,0.013011541,0.05784263,0.08312962,-0.0015656106,0.030613305,0.0043889917,-0.048943393
398,0.31139597,-0.09760651,-0.022057902,-0.012446603,-0.031071646,0.4171991,-0.07720682,0.08612282,-0.14998126,0.0031531453,0.44662267,0.5895937,0.3644336,-0.12003617,-0.1392021,-0.0156088555,-0.03872424,0.05725592,0.014634369,0.012313652
399,0.047926802,0.0011169364,-0.08596134,0.021529637,-0.12192435,0.09745683,0.12344889,0.08077582,-0.15201588,0.11387205,-0.0003556764,-0.0040958324,-0.012239116,0.18320826,-0.11305239,-0.026964795,0.008605769,0.017935257,-0.056271143,0.11352895
400,0.19575746,-0.017925126,-0.07018494,0.0010448917,-0.10839277,-0.20275785,0.024263987,0.013782632,-0.19884104,-0.009089988,-0.0070181573,-0.10526234,-0.020926157,0.011303375,0.24903665,0.19254664,0.0058264947,0.018031852,0.18110791,-0.08163719
401,0.1977828,-0.04465577,-0.015851043,0.048615355,0.089689806,-0.18600704,-0.006721333,0.038161907,0.16811894,-0.0039336556,-0.063036226,-0.08129608,-0.07128575,0.01593391,-0.059628822,0.13703504,-0.014729723,0.06257032,0.1848128,0.07696399
402,-0.035347853,-0.06783054,-0.05185395,-0.0051767626,-0.07729136,-0.19253391,-0.006033471,0.066847846,-0.04762392,-0.04229841,-0.026461633,0.05120023,-0.1568737,-0.021232689,-0.11645242,-0.023559166,-0.018512117,0.049927868,-0.054824814,-0.023705618
403,0.038410254,0.015551238,-0.06017175,0.26658446,0.1289355,0.082045026,-0.02557394,0.14603335,-0.14008667,-0.07207122,0.025168803,0.042645566,-0.13770673,-0.017233184,0.12119437,-0.06634331,-0.0011861515,-0.022065828,0.042770755,0.12234822
404,-0.06153518,0.10118508,-0.04279915,0.029084718,0.058373295,-0.1997684,0.23661777,0.249211,-0.1273303,-0.051509984,-0.027518367,-0.1106383,-0.17979902,0.02994018,-0.051731832,0.05975674,-0.023372207,-0.017409915,-0.07896583,0.043832935
405,-0.21553534,0.117437996,-0.08731968,-0.20703529,-0.25603378,-0.26147366,-0.3053044,0.05691795,0.117238,0.03475232,0.16190763,0.022619953,-0.10210014,-0.012512028,-0.09215198,-0.10038737,-0.28778672,-0.08525752,0.18586425,-0.2549043
406,0.15028466,-0.0938284,0.14165337,-0.04042442,-0.16681758,0.2180522,-0.04117601,0.24238837,-0.041096285,0.046879936,0.099058695,0.22775285,-0.07008262,-0.15139127,0.0535746,0.21998549,0.06899177,0.13059396,0.07319207,-0.2149382
407,0.17592846,-0.17395325,-0.087586485,-0.0027768444,0.04732835,-0.26724395,-0.058182478,-0.11900578,-0.010658995,-0.13819066,-0.36410487,-0.1404533,0.08027338,-0.17664862,0.17250182,0.1494756,-0.103443444,0.042120907,0.17100383,0.13219698
408,0.028477574,-0.060697857,-0.15068345,-0.06572943,0.013006928,0.05832281,0.1837796,0.15475379,-0.21466088,-0.049269468,-0.20935312,0.07842166,0.10024296,0.008745256,0.095742665,0.0326187,0.084352665,-0.056105487,0.018930322,0.07966974
409,-0.12205545,0.11411932,0.0072988877,0.14204518,0.16434027,0.2868804,0.08366519,-0.09861538,0.35613477,0.31993583,-0.17601368,-0.18505067,-0.398483,-0.5151406,-0.110184126,0.09541218,-0.1323185,-0.14974971,0.072527364,0.10755938
410,0.1813259,-0.055948652,-0.09036639,0.15081401,-0.23822449,-0.18524079,-0.19008139,-0.026698463,-0.12841234,-0.09249336,0.3035536,0.08404445,0.095836475,0.4083819,-0.027122226,0.15565121,0.060569044,0.26914877,0.119825125,-0.2799575
