,0,1,2,3,4,5,6,7,8,9,10,11,12,13,14,15,16,17,18,19,20,21,22,23,24,25,26,27,28,29,30,31,32,33,34,35,36,37,38,39,40,41,42,43,44,45,46,47,48,49,50,51,52,53,54,55,56,57,58,59,60,61,62,63,64,65,66,67,68,69,70,71,72,73,74,75,76,77,78,79
0,-0.6485945,0.068025805,0.27301604,-0.35061565,0.2586563,0.15854353,-0.0654365,0.05988657,-0.2882776,0.34694272,-0.8895882,-0.23873922,0.1279558,0.07569406,0.1913628,0.1456203,0.14676961,-0.39993495,-0.025940534,-0.16933985,-0.06326018,-1.2973548,0.24559988,0.071218304,-1.0823319,0.04319424,-0.9570507,0.11146538,-0.012270552,-1.1506363,0.06431407,0.31540874,0.042766158,-0.30998617,0.035819538,-0.13709112,-0.28117108,-1.8991494,-0.38990435,0.05941013,0.21381582,-1.3081186,-0.90232444,0.08785933,0.22364902,-0.9415671,0.2512624,0.20402394,0.0023035153,0.23799025,-0.318987,-1.2123563,0.10703055,0.08429759,0.22083992,-1.377662,0.041992296,-0.106105596,-0.07390119,0.1974629,-1.1635637,0.103229664,-2.8872585,-0.6231881,0.20301874,0.32620713,0.070856914,0.3091946,0.043032497,0.037079472,0.19045003,0.3158814,-0.6477335,-0.7217744,-1.5939057,-0.42310238,0.23292623,-0.40393263,0.28079718,-0.3184196
1,-0.0062439456,0.017111642,0.15179668,0.07461494,-0.26740092,0.11668482,-0.039046187,0.16639858,-0.1454916,0.33457738,-0.1302226,-0.25678173,0.35417682,-0.15995842,-0.41942328,0.27874586,0.18633507,0.115741245,0.04497175,0.22885081,0.063467026,0.019201912,0.18582635,0.1693041,0.03426727,-0.22354221,-0.3447355,-0.06993856,0.053625256,-0.7105831,-0.09553067,-0.00542483,0.08089719,0.14179824,0.16690405,-0.38791567,-0.0993557,-0.2300209,0.12651259,-0.46595153,-0.020544799,-0.18032475,0.15784717,-0.053347886,0.18812403,0.14118592,-0.2503398,0.113368765,0.030492593,-0.24154633,0.008703464,-0.28791127,0.13423389,-0.15948682,-0.0983514,-0.398037,-0.34803,-0.45782346,0.29546872,0.27775723,0.17293495,0.104175314,0.21868613,-0.3661144,-0.14090459,-0.122543,0.029602557,-0.25826606,-0.027446065,-0.21546876,0.16081442,0.16577655,0.08449634,-0.09569341,-0.12500782,0.012961695,0.021151273,-0.38134822,0.065069616,-0.015723739
2,0.081869334,-0.16352919,0.29175225,0.2212581,0.40292975,0.23980087,0.38112372,0.23206365,-0.45103022,0.0006756942,-0.18525401,-0.13286164,0.2397417,-0.15063623,-0.21804361,0.33429918,-0.46752486,0.25951722,0.22060007,-0.0552565,-0.034315858,-0.043749575,0.050812513,0.26848486,-0.24031247,-0.14010607,-0.17807648,0.28996882,0.096141264,-0.020083014,-0.32851276,0.028330095,0.0023083114,-0.08760116,-0.14980756,0.13786057,-0.10323158,-0.35588625,-0.018161718,0.32411513,-0.13344435,-0.34763172,-0.14977568,-0.27826682,-0.20800577,-0.29175797,-0.35016257,-0.11198086,0.33067814,0.15249981,0.13930887,-0.26054856,-0.16010746,0.023185875,-0.26476407,0.1100324,0.22598483,-0.16824996,0.012784445,0.26746005,0.089505106,-0.21803428,0.10743811,-0.60324943,0.048557926,0.29785228,-0.24653122,0.30292246,-0.28083134,0.12017988,-0.07696712,-0.18578896,0.09358041,-0.14622478,0.18340117,0.25386938,0.3383316,0.087877594,0.25171262,-0.20713511
3,-0.18149285,-0.27571216,-0.218115,0.41422665,-0.50193256,0.17588244,-0.256265,0.33139402,0.1139903,-0.21210319,0.0445159,-0.2691455,0.12445285,-0.036244255,-0.03543172,-0.53429896,-0.04897451,-0.35623392,-0.0098007275,-0.11352852,0.11329355,-0.04488786,-0.51598513,0.09008864,-0.13820122,0.16412352,0.22970565,0.17758024,0.28695405,-0.4390881,-0.40484968,0.16742456,-0.09924692,-0.25977778,-0.16289937,0.40728274,0.031695835,-0.1487063,-0.17852409,-0.5630725,0.15233597,0.2856202,-0.33346522,0.20393321,-0.13155614,0.23993015,-0.41945192,-0.34344754,0.36791804,-0.20306703,-0.49365568,-0.60094917,0.16074795,-0.2407135,-0.23282027,-0.019235114,0.12327917,-0.49722946,-0.021163845,-0.09328711,0.027473798,-0.07312049,-0.1448128,-0.021652332,0.16401358,-0.5261057,0.26579583,-0.13383695,-0.27076235,0.40794018,-0.1334631,-0.30173495,0.17170876,0.28653467,-0.09959424,0.10267166,0.48858932,0.15064001,-0.2177551,0.2936544
4,0.17044155,0.13135687,0.4583504,0.271743,-0.46402666,-0.034254033,-0.091830395,0.14973067,-0.082167484,0.35463065,-0.17139514,0.053098056,-0.07484486,0.40033105,0.28669664,0.07138951,0.3387945,-0.18671805,-0.11353012,-0.2162047,-0.4700782,0.12764536,-0.05413156,-0.25384796,0.21120425,0.03748384,0.09887566,0.12470023,0.14606458,0.3618579,0.23103257,-0.6392231,-0.099425115,-0.4410636,0.31749514,0.2629489,-0.0728104,-0.32066193,-0.047619753,0.07103161,0.056671277,-0.15404709,0.25379202,0.049511,0.2620594,-0.06133013,0.1414502,-0.09655798,0.101608604,0.19347598,-0.31820416,-0.27114677,0.0123050865,-0.06583183,-0.07099761,0.31629178,-0.033601534,-0.3117842,-0.17116775,-0.13457221,0.4495206,-0.29655966,0.3202592,0.06789849,-0.14516611,-0.33291915,0.10733159,0.1364184,-0.023858093,-0.25150818,-0.26369768,0.06723438,-0.057296723,0.16803749,0.084213644,0.2601418,0.048504647,0.0018396397,-0.23090024,0.008153015
5,-0.10708373,-0.6069005,-0.19305179,0.18641989,-0.017280914,-0.05270689,-0.38074756,0.40575096,0.40717715,-0.16670375,-0.116723605,-0.24186109,0.2569193,0.103819504,0.3148639,0.12787645,0.11146173,0.10632856,-0.57438487,0.19625434,0.46463564,0.4583888,0.21503755,0.015246878,0.3112649,0.25553042,0.2595115,-0.19542812,-0.31577817,-0.13168406,-0.26442078,-0.22864193,0.47786543,-0.30768624,0.06463524,-0.28884584,0.2347052,-0.21510331,0.16447437,-0.32054454,0.0030131573,0.21710794,-0.23633178,0.2537572,-0.6079109,0.46739846,-0.09662071,-0.080868326,0.32989368,0.16526969,-0.07787076,0.1710419,-0.004364789,0.068978675,0.14550735,0.19301547,-0.45494208,0.45544556,-0.14806229,0.14681895,0.01357458,0.5916683,-0.24055155,0.14534658,-0.15163124,0.16562407,0.18596978,-0.32397076,0.38808823,0.13425331,0.39997548,-0.2193657,0.032635182,0.34098852,0.0353375,0.110809416,0.2993486,-0.19992067,0.019124249,0.15847848
6,0.046378694,0.070482686,0.29122317,0.27701062,-0.1529944,0.004853045,-0.28218165,-0.17539309,-0.11512678,-0.21605155,0.14076288,-0.110973164,-0.25665584,-0.08826971,0.2501967,0.12932998,-0.13909914,0.012729442,0.21283436,0.22599384,0.3522355,0.13745487,-0.0074478467,-0.029187344,0.046385672,0.3332529,0.06489117,-0.10167313,0.022529133,-0.12557523,0.05796683,0.28254345,-0.30641097,0.27853277,0.3586434,-0.15289289,0.052496027,0.51036716,0.14562954,-0.05219773,-0.091694504,0.111077495,-0.21131907,-0.48787233,-0.36736718,-0.062237177,-0.42418313,0.15643176,-0.24216871,-0.22673532,0.4192252,0.15870154,0.47530493,-0.05683737,-0.046908837,-0.24030206,0.19465706,0.39156595,0.034582928,0.19200462,-0.025895055,-0.16127749,-0.15889524,-0.62516195,-0.34846064,-0.11495769,-0.2588012,0.1857113,0.12803555,-0.07111942,0.036769103,0.69418037,0.122356266,-0.34663352,-0.18219101,-0.10600009,0.36559713,0.11992649,0.019194016,-0.37403974
7,-0.19314122,0.22217457,-0.62247854,0.10256946,0.34397134,0.15690847,0.3896135,-0.097647294,-0.35609692,-0.18207273,0.0075273737,0.18391256,0.023240333,-0.3212413,0.09985437,-0.01745102,-0.59490335,-0.046262212,-0.5744665,0.0416734,-0.0948639,0.26150408,0.38097858,0.13116488,-0.6881181,-0.040349614,-0.47937295,-0.1398023,0.04484391,0.103834674,-0.30590943,0.122045994,0.43541807,0.3836354,-0.14622335,-0.5101887,0.19230479,-0.25278473,0.20328276,-0.37418085,0.3402598,0.028379584,-0.41455802,0.090241775,0.23239368,-0.3997421,0.289982,-0.41699877,0.010516318,0.28175104,0.2812847,0.042639904,0.4148887,-0.26178658,-0.031931035,-0.57047105,-0.27990216,-0.016859636,0.52399933,0.14431816,-0.17047226,0.04110829,-0.15473095,-0.44896734,-0.12164012,-0.09798938,-0.32244328,0.06654111,0.3333636,0.1038361,0.3514067,-0.18160029,-0.7154663,0.051604893,0.31678838,-0.03585288,0.28653792,-0.12879515,-0.11142291,-0.15163405
8,0.025986914,0.017657304,-0.2413827,-0.0047924835,0.13638873,0.17143014,-0.37384754,0.25676593,0.11365473,-0.019662382,0.29070994,0.09376902,0.07283969,-0.2397479,-0.35584286,-0.35438028,0.16253838,0.053193536,0.2410077,0.34631538,-0.16266812,0.034542482,-0.2259448,0.049610462,-0.2857461,0.07939928,0.10590082,0.14084022,0.13868663,-0.13772711,0.077647015,-0.10083156,0.033935513,0.09369863,-0.16637781,-0.11225337,-0.44341266,-0.22111563,-0.008370248,-0.22304943,-0.36835465,-0.39758316,0.0025568514,0.30020368,-0.23097636,-0.32829872,0.06307776,0.38361457,-0.1746598,-0.0014192124,-0.39975882,-0.100212604,0.2780002,-0.14278279,0.3136926,0.1387034,0.3427444,0.13733633,-0.08668921,-0.049874995,0.090859026,0.16294135,0.2174136,-0.057968233,0.11328494,-0.2165966,0.09116885,-0.21485278,0.026456194,-0.0010923492,0.13207029,-0.38946247,-0.3040799,0.001995447,-0.058457144,0.16833293,0.2996695,-0.26260015,-0.28965113,0.004607925
9,0.33244103,-0.09519245,-0.13789569,-0.3892739,0.30918533,0.17314781,0.26272467,-0.3934781,-0.32310385,-0.24799934,0.41442138,-0.27509806,-0.17027742,-0.15106909,-0.20091964,0.14316064,-0.30080333,0.22134982,-0.21161816,-0.15697213,-0.46965662,-0.14626566,-0.07191738,0.48106077,0.41338497,-0.06197562,0.17037772,-0.40746206,-0.21467534,-0.11247142,0.03810081,0.15212417,0.3321316,0.008720005,0.051714506,-0.144128,0.26734355,0.04922967,-0.019870015,-0.5792009,-0.025631802,0.12300501,-0.0041029686,-0.3349561,0.09636486,0.07132023,0.037894167,0.3608396,0.1356031,-0.38777924,-0.33138376,0.06143425,0.15581685,0.05223571,0.09721202,-0.27387515,0.06451834,0.11043022,0.15550672,0.106163226,0.18332763,0.036881458,0.26794046,-0.46911845,0.22955626,-0.46940768,-0.2886537,-0.20998174,-0.19409628,-0.059283543,-0.042204216,-0.07664997,0.2747749,-0.042628184,0.049267516,-0.12691589,0.23243813,0.42959723,-0.065644145,0.06602659
10,-0.16950727,0.15187985,-0.6806536,-0.14144649,-0.33142528,0.1572442,0.15863046,-0.20090315,0.25349456,-0.7061509,-0.13480014,-0.31398675,0.37274408,0.26046497,0.35626268,0.20814537,0.5728861,-0.43708655,-0.09230711,0.24898653,-0.51996666,0.2549606,-0.2925493,-0.15170752,-0.20011239,0.3077447,0.25899217,-0.6098099,0.007392289,-0.06157827,-0.6178997,-0.05994442,0.28254765,-0.008172477,-0.40575942,-0.16764559,0.63618785,-0.7254697,0.07376035,-0.40222585,-0.41836563,-0.08205756,0.12749153,0.31174076,0.09127751,0.52400714,0.15085508,-0.32679865,0.35497963,-0.44244134,-0.37511414,-0.008222482,0.27812925,-0.18584722,-0.07904874,-0.2896439,0.006727582,-0.62668914,0.495336,0.35699093,0.07494608,-0.20871362,-0.036967378,0.6429427,0.09355204,0.056538247,0.33488652,0.18849738,0.29184303,0.14779979,0.09900601,0.26739198,-0.8720773,0.27652392,0.20973045,0.007611701,0.07373606,-0.2745063,0.26383078,-0.21334843
11,-0.07830647,0.026578866,-0.076531716,-0.089730725,0.06641288,-0.111266136,0.07777803,0.19876985,-0.16960986,-0.09635098,-0.10757835,-0.09265221,0.016408436,-0.1327769,0.13892996,-0.07595805,-0.05255755,0.079781525,-0.032259215,0.20402405,-0.07106031,-0.1262364,0.13553655,-0.017121244,0.0058213715,0.1063356,0.12224203,-0.29433882,0.039788242,0.030020867,-0.055977922,0.1488656,0.16491331,0.07278238,0.09816471,0.013855712,0.17423263,-0.1538062,-0.0025618013,0.12175158,-0.24685788,0.10018526,0.12100867,-0.13147226,0.12389069,-0.07372996,-0.113027886,-0.13807859,0.13872585,-0.15196525,0.09249851,0.14577854,0.051313724,-0.11385218,0.26734176,0.07270751,-0.09630505,0.126947,0.31222457,0.1519208,0.07822277,0.009781677,0.018904898,0.061841726,-0.05399878,0.17396851,0.09472166,0.062171936,0.19344187,0.063603096,0.230248,-0.30501264,-0.17340983,-0.0973783,0.08675763,-0.09715648,-0.04085256,-0.1734083,0.22264558,-0.035138838
12,0.11082257,-0.10357936,0.6293808,0.18158412,0.12701112,-0.088715516,0.2160869,0.5229445,-0.5622132,0.56513286,0.39321426,0.5247994,-0.34604794,-0.54090375,-0.5560686,-0.14440879,-0.66250265,0.1047981,-0.021283446,-0.30957702,0.8222965,-0.34292436,0.073816754,0.16276315,0.4075036,-0.45236593,-0.46848455,0.72197545,-0.36981383,0.2182303,0.62427187,0.024059935,-0.31932038,-0.21701205,0.49222523,-0.16019459,-0.27858874,0.8624768,0.109182395,0.5245984,0.07383897,0.27149332,-0.2748476,-0.21293294,-0.04370358,-0.54021007,0.124718696,0.54257953,-0.4165722,0.37661898,0.2749995,-0.071342535,-0.20837867,0.1456101,0.050931774,0.26918167,-0.34803447,0.46862563,-0.49106357,-0.4042624,0.0062796357,0.51462615,0.0020971673,-0.46413898,-0.42976573,0.2758331,-0.09279379,-0.07244429,-0.33858633,-0.54659283,-0.24034148,-0.2418297,0.7664565,-0.3683818,-0.23710945,-0.11149574,-0.20425276,0.44500324,-0.08633798,0.039655227
13,0.031652853,-0.07866967,0.15655579,0.15075405,0.07283708,-0.02160447,-0.013052035,0.1819291,0.07177345,-0.10738216,0.08433454,-0.121687345,-0.086674735,-0.046196263,-0.03572701,0.17563047,-0.013046562,-0.0038302413,0.014217641,-0.06713509,0.09232223,-0.07714664,0.13686693,0.018024243,-0.0066181393,0.10787691,-0.01857733,0.1978887,0.11840949,0.23387578,-0.0526987,0.047142796,-0.10244089,0.11145238,0.1659853,-0.028654369,-0.10386455,-0.039617453,0.0038984136,0.04423685,-0.18381198,-0.021044297,0.124832556,0.038097776,0.026780717,0.13011254,-0.03977809,0.009780566,-0.06003686,0.028394438,0.07786687,-0.030144095,-0.08461958,-0.12390461,0.004221923,0.059666798,-0.014927356,-0.026129302,-0.08254782,-0.22649369,-0.11622237,-0.07996909,0.27135012,-0.034320213,-0.02403993,0.12343342,-0.22610627,-0.039974276,-0.013622317,-0.13685213,0.14474246,-0.017785368,0.11891704,0.10759899,0.11830076,-0.048309594,-0.10075503,-0.08200891,0.2456006,-0.013143976
14,0.50618714,0.47856748,0.16094588,1.3024474,0.29420552,0.55899197,0.41372666,1.1846527,0.6795416,-0.042875815,0.77741194,0.19431041,0.74351037,0.36369434,0.18590921,1.045396,0.11297675,0.3896732,0.52100503,0.63066864,-0.101799615,0.53172165,1.0668725,0.9779972,0.8869344,0.052295458,1.0428303,0.6189674,0.39471346,0.15848555,0.43064287,0.5872416,0.5115023,1.1518193,0.9512076,0.585067,0.7593923,-0.061567113,0.66795635,0.36316675,0.4103351,0.37111136,0.5529389,0.11827901,0.39710712,0.10530477,0.8678209,0.5169168,0.3789089,0.15790552,0.18145882,0.27941108,0.91663545,0.5901649,0.17393224,0.099572234,0.66925853,0.5095571,0.33713678,0.98010427,0.8278644,0.08245018,0.56465554,0.042883784,0.9014705,0.3335593,0.46151105,0.53310007,0.5930005,0.58798933,0.81616974,0.19276801,0.08446889,0.7119973,0.59447956,0.3161227,0.9521355,0.46202102,0.94404125,0.4340128
15,0.075521,-0.026716013,0.058387864,0.31054762,0.031663757,0.040863838,0.13293092,-0.038175113,0.13766178,0.029392192,0.010618659,-0.0635127,-0.057380907,-0.030469222,0.06979233,0.021536306,-0.11474551,0.078584164,-0.0578158,0.1448706,0.21014453,-0.022490645,-0.033046212,0.26148155,0.08687072,0.075788304,0.017794525,0.31615597,-0.00044161748,-0.057894923,-0.009390156,0.056569498,0.124076776,0.06760951,0.07670782,0.015339969,-0.014261663,0.1791144,0.047502644,0.13406254,-0.027674157,0.009745559,-0.066803515,-0.036400776,0.07973528,0.13613714,0.0861548,-0.022499852,0.03736829,-0.036073,-0.028576097,-0.041687343,-0.057701416,-0.06144838,-0.06280346,-0.11975562,0.05548835,0.101860136,-0.023996238,-0.045572635,0.055347227,-0.045430403,-0.02595593,-0.036007047,-0.02697597,0.10824222,0.038176928,-0.069059156,0.23041199,0.023187421,-0.020726642,0.032106757,0.040256746,0.07972719,0.025913086,0.0048482586,0.029285679,0.01314046,0.08478407,-0.03646773
16,0.13164587,0.07016645,0.25072294,0.006635055,-0.82794,-0.22809024,-0.14646366,-0.49657688,0.026189985,0.05506309,0.3424274,0.01847896,-0.3539331,0.3288702,0.02781075,0.62098724,-0.112997,0.4907356,-0.3948716,-0.119488984,-0.099051476,-0.3086353,0.2945118,-0.25083482,0.24854647,-0.028118884,-0.0146556115,-0.80157393,-0.5236605,-0.032149527,-0.3536674,-0.26587307,0.18130891,-0.15402019,0.33410838,0.09528541,0.1812032,0.100123525,0.021253513,-0.33897814,0.0126934275,0.18748511,0.103262715,-0.2772137,0.20258325,-0.035618074,0.39872536,-0.3817072,-0.14818928,-0.52833843,0.41113093,-0.37644765,0.11877695,0.14257592,-0.10094931,-0.11099333,-0.21932483,0.4201325,0.14426649,0.3987161,-0.13725388,-0.5883264,0.20738639,0.56350815,0.033593383,-0.1777255,0.21156508,-0.24936849,-0.03695615,0.23063675,-0.0018041085,0.09404404,0.2863738,0.19669728,0.35417518,-0.05615823,-0.59395623,-0.033242516,0.274271,0.20364313
17,0.35274273,-0.031534363,0.23646292,-0.026914902,0.11103299,0.11081521,-0.14398457,0.3202921,-0.31800184,-0.4270667,-0.010417301,-0.4074063,0.14271149,0.47652403,-0.16386774,-0.31183657,0.23570235,0.01984779,0.5581472,-0.34275445,-0.28185028,0.24797025,-0.34585422,-0.14587463,-0.0833572,0.50227237,0.1309855,0.48137823,0.7275984,-0.7040416,0.50691295,-0.13953526,0.54660505,0.09200158,-0.21412379,0.42751935,-0.22417624,-0.14814259,-0.09650763,0.27897722,-0.19368388,-0.123589635,0.33032563,0.26786312,-0.75949526,0.084128074,-0.6005872,0.5790863,0.3290675,0.4348648,-0.2674994,0.6317752,-0.03002863,-0.19128034,0.13551253,0.40388167,0.39934593,0.5774659,0.2536216,0.41523236,0.31803808,0.009294632,-0.02490736,-0.020616775,-0.16924764,-0.72681266,0.13968173,-0.6131205,0.4624801,0.4611685,-0.08564964,0.28029916,0.24235731,-1.020992,0.18081531,0.00059125526,0.23426174,-0.40180564,-0.14278707,-0.27523875
18,-0.9354829,-0.1924581,-0.9842357,0.18784988,-0.048166607,0.21034001,-0.12479618,0.579828,0.015015608,-0.09636586,-0.04939868,0.071570314,-0.5804687,-0.37023452,0.3334269,-0.2291373,0.3254977,-0.27766737,0.43351054,-0.12741062,0.26297006,0.2411478,0.37099686,0.16814137,0.2155945,0.21396685,0.1734423,0.116274394,0.057235397,-0.051320545,0.031670623,0.25734183,-0.5215829,0.01640843,-0.3111828,-0.6547675,0.090388976,-0.70266,-0.07199647,0.034472864,0.1493555,-0.05387654,-0.46072158,-0.43009084,-0.1540433,0.2055162,-0.11050135,-0.047290802,-0.6022115,-0.20477015,-0.2019148,-0.9682938,-0.5821944,-0.122314766,-0.11421815,0.38958967,-0.08778728,-0.7006723,-0.88127345,-0.9068736,-0.33108056,0.42613414,-0.81675917,-0.47016588,0.34713757,0.42439944,-0.67358774,0.643938,-0.8964291,-0.44038114,-0.5249352,0.3261648,-0.5308818,-0.12366825,-0.17332529,-0.029700246,0.080163285,-0.11619575,0.34245533,0.36092395
19,0.19811772,-0.0677793,-0.014985764,0.12060214,0.28808,-0.09166207,0.14774428,0.2338997,0.2664383,0.29895827,-0.09049085,0.20028234,0.12229946,0.16129418,0.32311797,-0.24794547,-0.23712245,-0.055080224,0.12547961,0.07589475,0.14916259,0.23413022,0.44341522,0.076002814,-0.057963252,-0.11785851,-0.29313695,0.28564572,0.38727894,0.24468069,0.47367916,-0.12183623,0.28113338,0.103417724,0.35149774,0.25852633,0.28911304,0.025692407,0.4088206,-0.6954581,0.1594744,0.07695325,-0.2178588,-0.04449639,0.33171192,0.21558076,-0.42881075,0.35730562,-0.020741481,-0.12659417,0.3661773,0.48926055,0.07592003,-0.41247874,0.04543852,0.022427823,0.24937098,0.28561357,-0.115438275,-0.28708258,0.018706227,0.2180388,-0.22979799,-0.08776225,0.018087704,-0.071839206,-0.017748788,-0.5561467,0.045015246,0.11831515,0.35932666,-0.34083998,-0.034066703,0.1511323,0.33554,0.31192738,0.3056619,-0.39016223,-0.4092524,0.031034082
20,-0.013759426,0.45786548,-0.14234185,-0.3148766,-0.08814135,0.5717386,0.098299935,-0.58681864,-0.15694721,-0.2624462,-0.08402517,-0.3307509,0.18062906,-0.13724963,-0.22406945,-0.45330876,0.13540158,-0.18816471,-0.26301953,0.060878206,-0.2185871,0.045596637,0.05031932,0.4554194,0.0881347,-0.34224254,0.115540296,-0.085929126,-0.09067848,0.23430791,-0.076589614,0.23406501,-0.3026736,-0.06415357,-0.2627561,-0.5328772,0.12254496,0.050418887,0.3444277,-0.48241645,0.03528516,-0.34666023,0.31817827,-0.08288112,0.38952094,-0.40034252,-0.12577124,-0.009673055,0.25349903,-0.18690363,-0.4084801,-0.08680149,0.17657545,0.08792797,0.3432322,-0.62021506,0.41828826,-0.5323142,0.25891843,0.28952575,0.35565066,-0.2675367,0.6824163,0.2330453,0.20553271,-0.50213695,0.449759,0.14823194,0.1603108,-0.02198453,0.10241285,0.2982275,0.16175732,0.11650102,-0.112125486,-0.10612663,-0.087567225,-0.29755178,-0.10827194,-0.28433666
21,-0.21144716,-0.030159108,0.102296665,0.11883469,0.7756256,-0.080527276,0.14155714,-0.25327176,0.23241095,0.32417783,-0.6474113,0.2110711,0.04123434,-0.025088236,-0.576104,-0.4417597,-0.6346283,-0.34958825,-0.1698072,0.6041683,-0.30448455,0.21308586,0.31122297,-0.19357504,-0.07376927,-0.54387766,-0.3990452,0.031931333,0.22024174,0.009143324,-0.42237997,0.26245382,0.14945063,-0.15074374,0.063009396,-0.014984903,0.28408453,-0.42041785,-0.22730203,-0.10180207,-0.27950218,-0.32304907,-0.041861493,0.117031634,0.4664419,0.009880198,-0.67985535,-0.5994427,0.01096304,0.22290596,-0.13293977,0.15279087,0.3279828,-0.17318702,0.22901498,-0.45551312,0.009365184,-0.45890522,0.058707736,-0.55551696,0.28638718,0.2469592,0.059957135,-0.048374355,-0.022539476,0.49372306,0.1603849,0.25902617,0.11299624,-0.45016038,0.29482302,-0.11583165,-0.69149673,0.23499161,-0.035210285,0.19983476,0.22165543,0.5416772,-0.620659,-0.016884461
22,0.39292538,-0.06640967,-0.15920736,0.33790192,0.31714296,0.099432066,-0.017062167,0.105051056,0.15060264,0.10416443,-0.3778033,-0.2317867,0.13897571,-0.012839216,-0.2402494,0.27536,0.056476668,-0.30282074,0.2280949,0.059357945,0.2307126,0.14637373,0.36323625,0.17272902,0.038483117,0.1420594,-0.13685298,0.48758483,0.2720663,-0.30802935,-0.26217934,0.18981215,0.27737883,0.08708744,0.2748887,0.2424478,-0.055046875,-0.51755476,0.21741448,-0.27664953,0.0025976407,-0.2150224,-0.000305232,0.07986988,0.2723977,-0.31952724,0.10107464,-0.3858768,0.30583295,0.25151095,0.045148052,-0.30816352,-0.046539504,-0.16093001,0.24085015,0.33482152,0.19356336,-0.21748249,0.25370234,0.2910613,-0.21810694,0.11087511,0.009332726,0.17004775,0.14648795,-0.112653114,0.0046106637,-0.13143764,0.18520685,0.23546799,-0.12945485,0.17096394,-0.075565636,-0.16422151,0.1640562,0.30500308,0.046255384,-0.090354495,0.11365331,0.045760117
23,0.06482443,-0.2718308,-0.15527114,0.062348753,0.10239002,-0.06853941,-0.20390415,-0.048427258,0.14748228,0.24647905,-0.056941718,-0.1605522,0.1913368,0.13770007,-0.29569152,-0.28285313,0.3426919,-0.11193458,0.10670147,-0.046829514,0.24141183,0.11999754,-0.50673044,0.20792729,0.21913928,-0.3252139,-0.21654771,-0.3460023,0.106214285,0.039740603,-0.20905446,0.17251247,0.10391956,-0.037462004,0.06062068,-0.04508347,0.061891682,-0.4225188,0.0010815347,-0.18867254,0.05855255,0.0002980841,-0.23151793,0.01921552,-0.25325128,0.2580017,-0.31252956,-0.21407795,0.20247845,0.105659716,-0.21302043,0.053897113,-0.23219196,0.11068651,-0.30967942,0.018223023,0.12664694,-0.2535724,0.12811396,0.22189827,-0.087449305,0.34456167,0.22700039,-0.1596797,-0.3367752,0.043828253,0.34489247,-0.59290093,0.15417165,0.0910606,-0.28605574,-0.5927635,0.01993421,-0.37640706,-0.065526634,0.09132259,-0.26901132,-0.2789387,-0.5379815,0.07020304
24,0.3645235,0.6992088,0.38665175,0.9637983,0.5832984,0.5180218,0.46158972,1.1105976,0.76079726,-0.04016346,0.35594022,-0.037826657,0.73131293,0.44281182,0.29402816,0.916245,0.21167047,0.6963127,0.8708176,0.68590283,0.22459416,0.7497726,1.0573673,0.7877417,0.6626055,0.11674498,0.7571278,0.49252546,0.5662328,0.104750335,0.56884676,0.64522326,0.6921663,1.0324713,0.7740188,0.69227326,0.8629454,-0.1820876,1.05149,0.45886835,0.12248366,0.46264544,0.71522826,0.15912871,0.33233804,-0.10390701,0.76045394,0.5813258,0.6955463,-0.0314573,0.6148421,0.42878368,0.8075629,0.36145523,-0.0006737347,0.36117318,0.5504374,0.2993475,0.76378804,0.7044893,0.96809524,0.3875495,0.43386355,0.08262706,0.8842017,0.51831746,0.4380452,0.43719497,0.7259217,0.8185562,0.78317094,0.40328002,0.055356402,0.76910514,0.74741846,0.22968902,1.0086648,0.56486714,0.6570674,0.5645725
25,0.09178008,-0.30639678,0.00042707784,-0.096501365,0.37809142,0.51608413,-0.017087772,-0.0071621733,0.12094494,0.26090005,0.24839431,0.21700586,0.3765921,-0.24346906,0.5258891,-0.32338688,0.22858018,0.116266035,0.1516682,0.100620925,0.14414307,0.07567588,0.17790623,0.30583194,-0.28728476,0.29681885,-0.16867381,0.107914306,-0.004112453,-0.048691258,-0.4184329,0.4002504,0.30473024,0.05335199,-0.17590249,-0.33539182,-0.24698956,0.009029165,0.49314854,-0.2764522,0.08546035,0.46152958,-0.31405938,0.15771379,0.13834038,-0.25828278,0.011701739,-0.15689412,-0.057457536,0.044519685,0.04320873,-0.114030115,0.0453621,0.26187062,0.345802,-0.6102078,-0.022615671,0.31428522,0.46416444,0.25034392,0.28976816,-0.34491643,0.5004512,0.25654098,-0.14311606,-0.30900678,0.24032964,0.28261688,0.052672192,0.21384153,0.21105169,0.4391367,-0.03831919,0.18700494,0.09010905,0.31961268,0.27937183,-0.37996492,0.116971016,-0.3431418
26,-0.3089559,0.613823,0.006999061,-0.1499856,-0.501072,-0.24470921,-0.2635056,0.014136212,-0.20806494,-0.1748683,-0.0013305065,-0.43388426,-0.35881522,-0.042119965,-0.2684523,0.22381303,-0.03458258,-0.08816781,0.025990862,0.1473924,-0.09312249,-0.15556413,0.046777807,-0.38186818,0.3555073,-0.56166625,0.2685119,-0.10333815,0.007046065,0.39118856,0.46648207,-0.6091635,-0.47200832,0.22399648,-0.12851366,0.34642726,0.42952096,-0.0008494345,-0.44440696,0.2542709,-0.3752314,-0.30402365,0.18930694,-0.045320198,-0.32885277,0.27154344,-0.06225083,0.046851277,0.2066171,0.011911634,0.32330474,-0.07723342,-0.19182277,-0.53567183,-0.15797518,0.5577296,-0.31931955,-0.18326896,-0.34059617,-0.5284366,-0.119351245,0.24735907,-0.5580583,-0.36316243,0.25191745,0.23169191,-0.1595043,-0.18860875,-0.044819698,-0.06498117,0.029379282,-0.37921038,-0.32145116,-0.24838874,0.29739118,-0.12885934,0.030636953,0.108005226,0.023206811,0.05685409
27,-0.4482879,-0.24738209,0.21090169,0.04262166,0.5099272,-0.30093893,-0.38037804,0.04577585,0.12539527,-0.33136132,-0.25243512,-0.24544886,0.078163944,0.14201924,0.007834238,-0.32939535,-0.31102642,0.456076,0.14243859,0.43402198,-0.28607205,-0.35717633,0.23163705,-0.33641794,-0.15246226,-0.4344383,-0.116321586,-0.024676006,0.027695695,0.3117114,0.27735984,0.09866974,-0.29674926,-0.2605222,0.1867176,0.0952069,-0.10322179,-0.2299391,0.09902504,0.5566057,-0.47458935,-0.39225224,0.5468709,0.50558734,0.28938287,-0.4704835,0.65044016,0.0011167958,-0.31780124,-0.0943143,0.42485172,0.41970697,-0.22229432,0.24571767,-0.41514045,-0.59949636,-0.87326497,0.49472862,-0.31977755,0.03153731,0.3569291,-0.22931343,0.1248849,0.33074868,-0.26168153,-0.57561916,0.39771348,-0.4597884,0.20036219,0.05032881,-0.1805661,0.35204443,-0.429807,0.085146576,0.24886796,-0.2572021,-0.027065964,-0.37804806,-0.09188453,-0.42939404
28,0.2868038,-0.050395183,-0.01250182,0.25547636,0.086422876,0.08322944,0.18586053,-0.740602,-0.29501352,0.087444656,-0.49021086,-0.19059782,-0.1325936,-0.039742716,0.23797819,0.17026731,0.13115844,-0.2636032,-0.10617474,0.19393452,0.2624841,0.34273487,0.30711058,0.20045853,-0.17714395,0.11766431,0.2738375,-0.28743374,-0.21640855,-0.25346577,-0.09865555,-0.24508497,0.18420373,0.1340148,-0.18152288,0.31109178,-0.27241892,0.13217072,-0.11964653,-0.21469072,-0.36459953,-0.27778468,-0.11035704,-0.226491,0.09188122,0.16179834,0.12549655,-0.20797978,0.3463449,-0.18267787,0.30589637,0.2897067,-0.11261858,0.05792548,0.1673763,0.28316116,0.49257553,0.043572083,0.2559351,0.05455027,0.31004053,-0.55512613,0.41365007,0.33385226,0.20611708,0.17544882,-0.29814973,-0.5140022,-0.32750612,0.29814902,0.2338735,-0.30444527,-0.18371695,-0.59694505,-0.45359904,-0.19854374,0.13854553,0.28978223,0.49219134,0.18345821
29,-0.17066443,-0.08368143,-0.13640176,0.00733967,0.046683166,-0.032447882,-0.039469637,-0.103721,-0.023847891,-0.11991849,0.046162136,-0.11553651,-0.049686804,0.07260073,0.18072475,0.20664245,0.107935734,0.018398074,0.03188045,0.1444399,0.015034192,-0.079134114,0.08213292,-0.023090685,0.100761764,-0.011932784,0.024695288,0.027497748,-0.1392292,-0.10595903,-0.12430132,-0.07595454,-0.022592649,0.11607559,0.052603528,0.11292645,0.10927736,-0.19177727,-0.09724591,0.08708953,-0.05251645,-0.08335989,-0.05042546,0.07778021,0.01604457,-0.12376817,0.04000044,-0.089041345,0.1620478,-0.053795982,0.09405944,0.00021064986,0.1108019,-0.05611665,0.44901004,0.13749039,0.10190649,-0.20704845,0.22828901,-0.11382056,0.03791689,-0.112054706,-0.07281749,0.08452397,0.030051017,0.056193285,-0.06927401,-0.15030597,0.048269734,-0.07036479,0.18738812,-0.04403482,-0.20616876,0.109348156,0.07183694,0.042679477,0.13377136,-0.16404854,0.18539023,-0.04256231
30,0.34065187,0.41128087,-0.12078506,-0.024063738,-0.37266073,0.061409056,0.17339759,-0.23047332,0.07312129,0.34340572,-0.09152573,0.40732384,-0.38097173,-0.238304,0.25944498,0.26052445,0.36056498,-0.34298325,0.2682711,-0.044690512,0.25295368,0.46217257,-0.38758108,0.16311935,0.2438646,0.57184786,0.012507125,0.10805534,-0.053659864,-0.22238675,-0.12779151,0.11667557,0.5558877,0.19611903,-0.36091563,-0.24212433,0.40477204,0.30931067,-0.15122905,-0.5281339,0.6293429,0.6709144,-0.6431837,-0.366971,-0.31355378,0.01190213,-0.5452213,0.23611881,0.32967567,0.0012798684,-0.30476713,-0.4361296,-0.07740165,-0.203393,0.6157818,0.12099839,0.51575696,-0.56430835,0.2129956,0.11517012,-0.2640871,0.0023308187,-0.06365759,-0.42693081,0.1861571,0.35857022,-0.30794284,0.49364197,-0.30265883,0.02526242,0.016372716,-0.2525448,0.38444647,-0.3284598,0.023193855,0.16867192,0.29117543,0.15798071,-0.2692853,0.5669268
31,0.11402311,0.09490913,0.35211864,0.42504844,0.28916198,0.0392072,-0.27668744,0.020563295,-0.16922262,0.42551243,0.29860795,0.26137242,0.39151955,-0.03106736,-0.40847582,0.5702487,-0.33553162,0.026280817,-0.5506288,0.22130851,0.4455414,-0.18914536,0.34309614,0.27221304,0.194271,0.04059783,-0.15200132,0.12275678,0.09884096,-0.31011212,0.4910501,-0.15017354,0.040499453,0.5032985,0.4575767,0.007988244,-0.15844968,-0.52852625,0.026281495,0.32188374,-0.18938002,-0.50937414,-0.2117507,0.44678393,-0.2913955,0.5264321,0.27693796,-0.09882764,0.1892203,0.3865066,0.5474965,0.46015757,0.021822123,0.13094063,0.19405976,-0.09934488,0.07834636,-0.26897374,-0.029940024,0.18441966,-0.18429774,-0.2682357,-0.004616828,0.19617939,-0.066421606,-0.025541184,0.31380096,-0.076796725,0.20891754,-0.34398514,0.64540964,-0.0029175729,-0.055440903,-0.2645294,-0.19792253,0.4424946,0.18396708,-0.18710707,0.05126815,-0.19796403
32,0.2614693,-0.3831209,0.22757426,0.33663708,0.0026066755,0.098970145,0.04627906,0.230007,0.33872446,-0.20161548,-0.52685535,0.11864793,0.13201939,-0.00024123868,-0.17182371,-0.6590496,0.2464321,0.14731452,0.3002522,-0.37796223,0.16633528,0.43764308,0.13097571,-0.38815346,-0.37119213,-0.37867555,0.20177148,0.18790944,0.24784252,-0.39607546,-0.2601319,-0.0015656103,0.03235325,-0.31939983,0.19257468,-0.122044876,0.3133432,0.1130534,-0.1085164,0.2275269,0.1481118,0.21258909,0.035304688,-0.32482386,-0.03821101,-0.1661541,-0.25352275,0.31550774,0.55577743,-0.10854457,-0.7368837,-0.31868738,0.403876,-0.2929964,0.4464157,0.3215469,-0.590347,0.3434776,0.08530013,-0.14946982,-0.27869,-0.1863686,-0.17745402,0.216141,0.07483189,-0.21565406,0.24288584,0.21795918,-0.36872572,-0.35663018,0.47750658,-0.603556,0.14868967,-0.06685725,-0.033348072,-0.025466675,0.18564504,0.34472758,-0.12713325,0.22676782
33,-0.11027144,0.20550875,0.2790519,-0.061209433,-0.17512718,-0.012371591,0.32222906,0.038577043,0.4309925,-0.32537803,-0.051360883,-0.23054706,0.27646926,-0.112121254,0.15667291,0.15408824,0.5326483,-0.032906394,-0.13144056,-0.1143214,0.36106348,-0.13807021,0.15022776,-0.24119584,-0.11540114,-0.21042532,0.26999202,-0.15204413,0.07142687,-0.113372594,-0.021665484,-0.0016663785,0.041864514,-0.0841159,0.38574702,-0.37147498,-0.08839491,-0.2542068,0.019045252,-0.0032009464,0.10205421,0.28588256,0.37298772,-0.3127313,0.24702816,-0.036490187,0.047333006,0.050208636,0.19978356,-0.14589837,-0.31332293,-0.2305637,0.007709762,-0.13866657,-0.1131536,0.049414672,-0.5110334,-0.23533675,0.20217068,-0.19613647,-0.037028104,0.16941653,0.046338923,-0.25601143,0.04759315,0.039049514,-0.0018640205,0.1650191,0.12849812,0.05879813,0.29818484,-0.20936184,-0.054955997,0.16938029,-0.11555539,-0.2109408,0.27003962,0.18150416,0.351116,-0.34263197
34,0.17076576,-0.3515607,0.09534569,0.2968937,-0.4891671,0.33246446,0.20639852,-0.5034079,0.097843036,0.022627112,-0.015294061,-0.059131656,-0.029949253,0.15758775,0.26989737,-0.541883,0.051731713,-0.5174394,0.30675605,-0.29529056,-0.4883667,-0.23100182,-0.01113152,0.29261282,-0.1472313,0.008979346,-0.19180089,-0.22677375,-0.2063073,-0.0076667042,-0.21245481,0.15404579,0.04443145,-0.6162732,-0.37636182,-0.18792371,0.21691723,-0.3876898,0.19230902,-1.3004032,0.18342797,-0.05519668,-0.67165506,-0.38091716,0.08322513,-0.34023494,0.12149286,0.161392,0.30707482,-0.28774986,-0.36998558,-0.07499969,-0.4191124,-0.4196258,-0.4912536,-0.41737014,0.17264505,-0.42772752,0.12955554,0.29205182,0.3490071,0.19068743,0.22641587,0.04205039,-0.1351963,0.19262482,-0.4346938,0.11256871,-0.35520375,0.115407355,-0.22912158,-0.39144102,-0.05606237,-0.18922374,-0.13574602,-0.10064955,-0.10106124,-0.17638943,0.0268175,-0.3738179
35,-0.05988019,0.26610142,-0.020553209,-0.048576444,-0.18210657,-0.0039683133,-0.061583154,-0.15638705,0.025469584,-0.19610193,-0.14868979,0.18061195,0.06824141,-0.22599943,0.4223274,-0.05315664,-0.242469,-0.10151062,0.017117556,0.07335915,-0.15812732,-0.14787684,-0.2060817,-0.04037909,-0.29461583,0.16213576,0.22195981,0.029323272,0.1733718,0.28086418,0.03213226,-0.09450727,0.1436951,0.11812132,0.05910606,0.03787298,-0.08177701,0.1619396,0.13863865,-0.24523482,-0.028610436,-0.16989397,0.23139921,-0.2351802,0.06528507,-0.05364815,0.08729878,-0.2293565,-0.15587221,-0.050987694,-0.013696578,0.2708945,0.23516047,-0.22181398,0.056752797,0.2169178,0.16689762,-0.3461781,-0.103181094,0.23224361,0.006971835,-0.079811454,-0.06371559,-0.15532398,0.007340586,-0.49219105,0.04122874,-0.25144488,0.11010542,0.20215228,-0.09108517,-0.12783611,-0.36947694,0.12820524,0.27763617,0.06718471,0.2455445,-0.27245617,0.10964584,-0.17194012
36,-0.46112862,-0.53585607,-0.46479088,-0.25934613,0.24463128,0.27031413,-0.050044052,0.2978012,-0.095688276,0.02722097,0.04410201,-0.44192153,-0.23654768,0.33889544,0.19527425,-0.411834,0.27817947,0.11466685,0.2570868,-0.5357888,-0.15801087,-0.023355164,0.27313855,-0.06588977,-0.46010175,-0.26586717,0.14235604,-0.020437261,-0.059124187,-0.26706308,-0.087983966,0.12661691,-0.4059612,-0.1713597,0.09517591,0.33574516,0.3273122,0.10570274,0.19018184,-0.75039506,0.015000575,-0.031006454,-0.011589861,-0.44397914,-0.35801908,-0.27655253,0.17378356,-0.16449422,0.009525578,-0.40833154,0.22294642,-0.1109652,-0.056969658,0.19555539,-0.11142862,-0.34171975,-0.3240874,0.17061204,-0.07364349,0.08682127,-0.08518121,-0.19861716,-0.47614068,0.02497325,0.30733702,-0.89887035,0.16172017,0.4454286,-0.19495587,0.21585539,-0.44300255,0.16123158,-0.10425983,-0.27201837,0.2936544,0.18369778,0.16377151,-0.13118547,-0.45669824,0.23156096
37,-0.4175353,-0.17880665,-0.82977486,-0.60205466,-0.059677985,0.08515807,0.055907704,0.1086625,-0.25782722,-0.07905236,-0.27933553,0.08543671,-0.5443712,0.17329462,0.09499018,-0.40794826,0.14421019,0.2316519,0.21536504,0.33654132,-0.19269933,0.3923574,-0.16028304,0.102425985,-0.26161844,0.38790974,0.24200937,0.08824673,-0.42253113,0.4432726,-0.2067092,0.28706607,0.1312991,0.096284926,-0.3336074,-0.20695232,0.22454643,-0.033583283,0.1190621,-0.19698621,-0.34625605,0.07432838,0.32596475,0.17932776,0.26194066,-0.30279037,-0.57473046,-0.43321332,-0.35656154,-0.43634024,0.015904007,-0.502289,0.33314687,-0.002520564,0.116814956,0.056196634,0.16512775,0.22239617,0.05049946,-0.22146787,-0.6134876,0.2782842,0.092700824,-0.33457738,0.20763625,-0.3115284,-0.10124988,-0.06316895,-0.39683142,0.35665518,-0.050257053,0.41740665,-0.39815244,0.45370582,0.18354943,-0.26332673,-0.04134272,0.18269414,-0.7109547,0.17744446
38,-0.040729217,0.11373824,0.020255085,0.26982093,-0.015019151,0.18011728,-0.15976176,-0.22560807,0.07836141,-0.15460774,0.2774871,-0.16472493,-0.21090788,-0.22662343,0.35070407,0.06099849,-0.20776401,0.044639334,0.13863023,0.141734,-0.17926593,-0.00090467173,-0.019102043,-0.21192093,0.12875147,-0.43691245,0.32460663,0.33068934,0.06381262,-0.059569944,0.14238039,-0.47243688,0.07078865,-0.105101325,-0.1290338,0.0022614654,0.22551288,-0.31891978,0.031710025,-0.12694845,0.12395586,0.21796387,0.20231128,0.027319139,-0.26529205,-0.121376574,-0.41444027,-0.031770125,-0.05923061,-0.14505288,-0.27419838,-0.07250078,-0.14148936,0.13511345,-0.5599724,-0.22642049,0.1261938,0.18030606,0.03969873,0.19699976,-0.11066514,-0.24758765,0.12113886,-0.2040943,-0.2543662,-0.3001433,0.17741239,-0.3443301,0.19858038,0.055772945,0.19051693,0.37011856,0.018959196,0.31916735,0.33895195,0.018994482,0.26681647,0.31069458,-0.29395682,-0.0916346
39,-0.3418674,0.18718201,-0.42925262,-0.2513615,-0.016205557,0.1362775,0.21705404,0.19074486,0.060251854,-0.08366245,-0.20008324,-0.19901633,-0.05095052,0.009603243,-0.2048014,-0.057591904,-0.15179385,0.41592285,-0.0062240735,0.15756357,0.14120467,0.0052738,-0.15040153,0.120932445,-0.16341364,-0.060650367,0.03862084,0.022582395,0.06879117,0.09936512,0.0044448446,0.040151123,-0.15192206,0.06761437,-0.115789324,-0.03286856,-0.13803598,0.3279192,0.08774108,-0.2972959,0.1333554,-0.17962788,0.41146618,-0.21335907,-0.01229256,-0.27168342,-0.044330552,-0.27475753,-0.07678578,-0.28252372,-0.27679133,0.24298598,0.17590833,0.20254992,0.1044624,0.30751124,-0.3077413,0.113042906,-0.02772618,0.18217678,-0.08737425,-0.23834741,0.11147601,0.24768949,-0.062670305,-0.06439144,0.25182632,0.1859027,0.25530282,0.31483126,-0.06029155,0.326398,-0.06240697,0.11971712,-0.05546593,-0.03528319,0.2102795,-0.07326039,-0.52894443,-0.2322187
